{"learner":{"attributes":{"scikit_learn":"{\"_estimator_type\": \"classifier\"}"},"feature_names":[],"feature_types":[],"gradient_booster":{"model":{"gbtree_model_param":{"num_parallel_tree":"1","num_trees":"550"},"iteration_indptr":[0,11,22,33,44,55,66,77,88,99,110,121,132,143,154,165,176,187,198,209,220,231,242,253,264,275,286,297,308,319,330,341,352,363,374,385,396,407,418,429,440,451,462,473,484,495,506,517,528,539,550],"tree_info":[0,1,2,3,4,5,6,7,8,9,10,0,1,2,3,4,5,6,7,8,9,10,0,1,2,3,4,5,6,7,8,9,10,0,1,2,3,4,5,6,7,8,9,10,0,1,2,3,4,5,6,7,8,9,10,0,1,2,3,4,5,6,7,8,9,10,0,1,2,3,4,5,6,7,8,9,10,0,1,2,3,4,5,6,7,8,9,10,0,1,2,3,4,5,6,7,8,9,10,0,1,2,3,4,5,6,7,8,9,10,0,1,2,3,4,5,6,7,8,9,10,0,1,2,3,4,5,6,7,8,9,10,0,1,2,3,4,5,6,7,8,9,10,0,1,2,3,4,5,6,7,8,9,10,0,1,2,3,4,5,6,7,8,9,10,0,1,2,3,4,5,6,7,8,9,10,0,1,2,3,4,5,6,7,8,9,10,0,1,2,3,4,5,6,7,8,9,10,0,1,2,3,4,5,6,7,8,9,10,0,1,2,3,4,5,6,7,8,9,10,0,1,2,3,4,5,6,7,8,9,10,0,1,2,3,4,5,6,7,8,9,10,0,1,2,3,4,5,6,7,8,9,10,0,1,2,3,4,5,6,7,8,9,10,0,1,2,3,4,5,6,7,8,9,10,0,1,2,3,4,5,6,7,8,9,10,0,1,2,3,4,5,6,7,8,9,10,0,1,2,3,4,5,6,7,8,9,10,0,1,2,3,4,5,6,7,8,9,10,0,1,2,3,4,5,6,7,8,9,10,0,1,2,3,4,5,6,7,8,9,10,0,1,2,3,4,5,6,7,8,9,10,0,1,2,3,4,5,6,7,8,9,10,0,1,2,3,4,5,6,7,8,9,10,0,1,2,3,4,5,6,7,8,9,10,0,1,2,3,4,5,6,7,8,9,10,0,1,2,3,4,5,6,7,8,9,10,0,1,2,3,4,5,6,7,8,9,10,0,1,2,3,4,5,6,7,8,9,10,0,1,2,3,4,5,6,7,8,9,10,0,1,2,3,4,5,6,7,8,9,10,0,1,2,3,4,5,6,7,8,9,10,0,1,2,3,4,5,6,7,8,9,10,0,1,2,3,4,5,6,7,8,9,10,0,1,2,3,4,5,6,7,8,9,10,0,1,2,3,4,5,6,7,8,9,10,0,1,2,3,4,5,6,7,8,9,10,0,1,2,3,4,5,6,7,8,9,10,0,1,2,3,4,5,6,7,8,9,10,0,1,2,3,4,5,6,7,8,9,10],"trees":[{"base_weights":[3.403411E-1,2.4829395E-1,-3.892086E-2,4.4530573E-1,-4.9549554E-2,-4.821611E-2,3.2890365E-1],"categories":[],"categories_nodes":[],"categories_segments":[],"categories_sizes":[],"default_left":[0,0,0,0,0,0,0],"id":0,"left_children":[1,-1,3,5,-1,-1,-1],"loss_changes":[1.702705E1,0E0,4.3518414E0,2.689244E1,0E0,0E0,0E0],"parents":[2147483647,0,0,2,2,3,3],"right_children":[2,-1,4,6,-1,-1,-1],"split_conditions":[2.0102827E1,2.4829395E-1,1.3076294E2,1.1970848E2,-4.9549554E-2,-4.821611E-2,3.2890365E-1],"split_indices":[4,0,3,3,0,0,0],"split_type":[0,0,0,0,0,0,0],"sum_hessian":[1.9834711E1,2.1487603E0,1.768595E1,8.595041E0,9.090909E0,7.107438E0,1.4876033E0],"tree_param":{"num_deleted":"0","num_feature":"5","num_nodes":"7","size_leaf_vector":"1"}},{"base_weights":[-1.7878914E-1,1.0957854E-1,-3.1279624E-1,-4.44694E-2,9.984869E-2,6.398892E-2,-3.91924E-2],"categories":[],"categories_nodes":[],"categories_segments":[],"categories_sizes":[],"default_left":[0,0,0,0,0,0,0],"id":1,"left_children":[1,-1,3,-1,5,-1,-1],"loss_changes":[3.816673E0,0E0,1.0884101E0,0E0,1.7015854E0,0E0,0E0],"parents":[2147483647,0,0,2,2,4,4],"right_children":[2,-1,4,-1,6,-1,-1],"split_conditions":[7.3E1,1.0957854E-1,2.5062605E1,-4.44694E-2,6.596641E0,6.398892E-2,-3.91924E-2],"split_indices":[1,0,4,0,2,0,0],"split_type":[0,0,0,0,0,0,0],"sum_hessian":[1.9338842E1,1.1570247E0,1.8181818E1,1.3719008E1,4.46281E0,1.983471E0,2.479339E0],"tree_param":{"num_deleted":"0","num_feature":"5","num_nodes":"7","size_leaf_vector":"1"}},{"base_weights":[-1.4285718E-1,9.7506925E-2,-3.1073448E-1,-7.579675E-2,-4.9722444E-2,-4.848188E-2,1.559387E-1],"categories":[],"categories_nodes":[],"categories_segments":[],"categories_sizes":[],"default_left":[0,0,0,0,0,0,0],"id":2,"left_children":[1,-1,3,5,-1,-1,-1],"loss_changes":[4.2441516E0,0E0,7.9549325E-1,7.173435E0,0E0,0E0,0E0],"parents":[2147483647,0,0,2,2,3,3],"right_children":[2,-1,4,6,-1,-1,-1],"split_conditions":[3.2490337E1,9.7506925E-2,1.5244263E2,1.3172572E2,-4.9722444E-2,-4.848188E-2,1.559387E-1],"split_indices":[3,0,3,3,0,0,0],"split_type":[0,0,0,0,0,0,0],"sum_hessian":[2E1,1.983471E0,1.801653E1,8.595041E0,9.421488E0,7.4380164E0,1.1570247E0],"tree_param":{"num_deleted":"0","num_feature":"5","num_nodes":"7","size_leaf_vector":"1"}},{"base_weights":[3.0637157E-1,8.346699E-1,-4.906334E-2,1.0206992E-1,3.548387E-1,1.1386322E0,-4.821611E-2,-3.840399E-2,2.9501915E-1],"categories":[],"categories_nodes":[],"categories_segments":[],"categories_sizes":[],"default_left":[0,0,0,0,0,0,0,0,0],"id":3,"left_children":[1,3,-1,5,-1,7,-1,-1,-1],"loss_changes":[9.5300865E0,2.627137E1,0E0,7.5608563E0,0E0,1.3466049E1,0E0,0E0,0E0],"parents":[2147483647,0,0,1,1,3,3,5,5],"right_children":[2,4,-1,6,-1,8,-1,-1,-1],"split_conditions":[1.6348343E2,1.5244263E2,-4.906334E-2,6.217656E0,3.548387E-1,5.6918535E0,-4.821611E-2,-3.840399E-2,2.9501915E-1],"split_indices":[3,3,0,2,0,2,0,0,0],"split_type":[0,0,0,0,0,0,0,0,0],"sum_hessian":[2.0661156E1,1.2396694E1,8.264462E0,1.0578512E1,1.8181818E0,3.4710743E0,7.107438E0,2.3140495E0,1.1570247E0],"tree_param":{"num_deleted":"0","num_feature":"5","num_nodes":"9","size_leaf_vector":"1"}},{"base_weights":[8.523825E-2,-1.19117066E-1,1.681063E-1,5.314009E-1,-3.2404E-1,-4.1164245E-2,2.0229886E-1,-4.298527E-2,1.19305834E-1,-3.4267914E-2,6.3218385E-2],"categories":[],"categories_nodes":[],"categories_segments":[],"categories_sizes":[],"default_left":[0,0,0,0,0,0,0,0,0,0,0],"id":4,"left_children":[1,3,-1,5,7,-1,-1,-1,9,-1,-1],"loss_changes":[7.156471E0,2.817384E0,0E0,8.051907E0,7.883005E-1,0E0,0E0,0E0,1.1193655E0,0E0,0E0],"parents":[2147483647,0,0,1,1,3,3,4,4,8,8],"right_children":[2,4,-1,6,8,-1,-1,-1,10,-1,-1],"split_conditions":[6.6181626E0,5.4537334E1,1.681063E-1,6.1114855E0,6.587298E0,-4.1164245E-2,2.0229886E-1,-4.298527E-2,1.23E3,-3.4267914E-2,6.3218385E-2],"split_indices":[2,3,0,2,2,0,0,0,0,0,0],"split_type":[0,0,0,0,0,0,0,0,0,0,0],"sum_hessian":[2.0330578E1,1.8842976E1,1.4876033E0,4.132231E0,1.4710744E1,2.9752066E0,1.1570247E0,1.1900826E1,2.8099172E0,1.6528926E0,1.1570247E0],"tree_param":{"num_deleted":"0","num_feature":"5","num_nodes":"11","size_leaf_vector":"1"}},{"base_weights":[-2.3562081E-1,6.138032E-1,-5.1606327E-2,-4.2698707E-2,2.48659E-1],"categories":[],"categories_nodes":[],"categories_segments":[],"categories_sizes":[],"default_left":[0,0,0,0,0],"id":5,"left_children":[1,3,-1,-1,-1],"loss_changes":[5.2798924E0,1.2031909E1,0E0,0E0,0E0],"parents":[2147483647,0,0,1,1],"right_children":[2,4,-1,-1,-1],"split_conditions":[6.3794785E1,1.08E2,-5.1606327E-2,-4.2698707E-2,2.48659E-1],"split_indices":[3,1,0,0,0],"split_type":[0,0,0,0,0],"sum_hessian":[1.9834711E1,4.628099E0,1.5206612E1,3.4710743E0,1.1570247E0],"tree_param":{"num_deleted":"0","num_feature":"5","num_nodes":"5","size_leaf_vector":"1"}},{"base_weights":[-8.424026E-2,-2.6340452E-1,4.361233E-1,-4.7927737E-2,-4.9954616E-2,1.0957854E-1,2.0332692E-2,6.3218385E-2,-2.2892822E-1,-3.840399E-2,6.3218385E-2,-4.647888E-2,4.7508303E-2],"categories":[],"categories_nodes":[],"categories_segments":[],"categories_sizes":[],"default_left":[0,0,0,0,0,0,0,0,0,0,0,0,0],"id":6,"left_children":[1,3,5,-1,7,-1,9,-1,11,-1,-1,-1,-1],"loss_changes":[2.0264883E0,7.075944E-1,1.5214021E0,0E0,1.2555953E0,0E0,1.3489984E0,0E0,1.539595E0,0E0,0E0,0E0,0E0],"parents":[2147483647,0,0,1,1,2,2,4,4,6,6,8,8],"right_children":[2,4,6,-1,8,-1,10,-1,12,-1,-1,-1,-1],"split_conditions":[2.5083277E1,1.16E2,1.065E3,-4.7927737E-2,9.08E2,1.0957854E-1,1.378E3,6.3218385E-2,1.856662E2,-3.840399E-2,6.3218385E-2,-4.647888E-2,4.7508303E-2],"split_indices":[4,1,0,0,0,0,0,0,3,0,0,0,0],"split_type":[0,0,0,0,0,0,0,0,0,0,0,0,0],"sum_hessian":[1.9504131E1,1.4876033E1,4.628099E0,6.7768593E0,8.099174E0,1.1570247E0,3.4710743E0,1.1570247E0,6.9421487E0,2.3140495E0,1.1570247E0,5.4545455E0,1.4876033E0],"tree_param":{"num_deleted":"0","num_feature":"5","num_nodes":"13","size_leaf_vector":"1"}},{"base_weights":[7.210156E-2,-4.8843667E-2,4.7535446E-1,1.998004E-1,-2.697548E-1,6.3218385E-2,-4.8074927E-2],"categories":[],"categories_nodes":[],"categories_segments":[],"categories_sizes":[],"default_left":[0,0,0,0,0,0,0],"id":7,"left_children":[1,-1,3,-1,5,-1,-1],"loss_changes":[4.7921834E0,0E0,1.4425368E1,0E0,2.0355315E0,0E0,0E0],"parents":[2147483647,0,0,2,2,4,4],"right_children":[2,-1,4,-1,6,-1,-1],"split_conditions":[1.19E2,-4.8843667E-2,1.27E2,1.998004E-1,1.005E3,6.3218385E-2,-4.8074927E-2],"split_indices":[1,0,1,0,0,0,0],"split_type":[0,0,0,0,0,0,0],"sum_hessian":[1.9173553E1,7.933884E0,1.1239669E1,3.1404958E0,8.099174E0,1.1570247E0,6.9421487E0],"tree_param":{"num_deleted":"0","num_feature":"5","num_nodes":"7","size_leaf_vector":"1"}},{"base_weights":[1.7719947E-1,-1.9298248E-1,1.1981845E0,-4.8843667E-2,1.7915307E-1,-3.99093E-2,2.8387097E-1,1.542056E-1,-4.5769766E-2],"categories":[],"categories_nodes":[],"categories_segments":[],"categories_sizes":[],"default_left":[0,0,0,0,0,0,0,0,0],"id":8,"left_children":[1,3,5,-1,7,-1,-1,-1,-1],"loss_changes":[7.7933564E0,1.7967122E0,1.5447515E1,0E0,7.312378E0,0E0,0E0,0E0,0E0],"parents":[2147483647,0,0,1,1,2,2,4,4],"right_children":[2,4,6,-1,8,-1,-1,-1,-1],"split_conditions":[1.515E3,1.27E2,1.05E2,-4.8843667E-2,1.106E3,-3.99093E-2,2.8387097E-1,1.542056E-1,-4.5769766E-2],"split_indices":[0,1,1,0,0,0,0,0,0],"split_type":[0,0,0,0,0,0,0,0,0],"sum_hessian":[1.9008265E1,1.4545454E1,4.46281E0,7.933884E0,6.6115704E0,2.644628E0,1.8181818E0,1.6528926E0,4.958678E0],"tree_param":{"num_deleted":"0","num_feature":"5","num_nodes":"9","size_leaf_vector":"1"}},{"base_weights":[8.79645E-3,-2.420908E-1,1.2471654E0,8.294059E-2,-4.9637392E-2,-3.289037E-2,2.48659E-1,-4.7774162E-2,2.0229886E-1],"categories":[],"categories_nodes":[],"categories_segments":[],"categories_sizes":[],"default_left":[0,0,0,0,0,0,0,0,0],"id":9,"left_children":[1,3,5,7,-1,-1,-1,-1,-1],"loss_changes":[6.723731E0,1.5309185E0,7.937332E0,1.0504506E1,0E0,0E0,0E0,0E0,0E0],"parents":[2147483647,0,0,1,1,2,2,3,3],"right_children":[2,4,6,8,-1,-1,-1,-1,-1],"split_conditions":[2.0858739E2,1.0875E2,9.5E1,8.8120285E1,-4.9637392E-2,-3.289037E-2,2.48659E-1,-4.7774162E-2,2.0229886E-1],"split_indices":[3,3,1,3,0,0,0,0,0],"split_type":[0,0,0,0,0,0,0,0,0],"sum_hessian":[1.966942E1,1.7024794E1,2.644628E0,7.7685947E0,9.256198E0,1.4876033E0,1.1570247E0,6.6115704E0,1.1570247E0],"tree_param":{"num_deleted":"0","num_feature":"5","num_nodes":"9","size_leaf_vector":"1"}},{"base_weights":[-2.0825475E-2,-3.2069972E-1,1.9806094E-1,-6.748469E-2,-5.018103E-2,-4.8351653E-2,1.559387E-1],"categories":[],"categories_nodes":[],"categories_segments":[],"categories_sizes":[],"default_left":[0,0,0,0,0,0,0],"id":10,"left_children":[1,3,-1,5,-1,-1,-1],"loss_changes":[1.373495E1,8.761327E-1,0E0,7.1363316E0,0E0,0E0,0E0],"parents":[2147483647,0,0,1,1,3,3],"right_children":[2,4,-1,6,-1,-1,-1],"split_conditions":[2.2757143E2,1.1970848E2,1.9806094E-1,9.879005E1,-5.018103E-2,-4.8351653E-2,1.559387E-1],"split_indices":[3,3,0,3,0,0,0],"split_type":[0,0,0,0,0,0,0],"sum_hessian":[2.0826447E1,1.8842976E1,1.983471E0,8.429752E0,1.0413223E1,7.272727E0,1.1570247E0],"tree_param":{"num_deleted":"0","num_feature":"5","num_nodes":"7","size_leaf_vector":"1"}},{"base_weights":[2.5051147E-1,2.0531578E-1,-1.0526129E-1,3.3809385E-1,-4.9649563E-2,-4.7810275E-2,2.5479206E-1],"categories":[],"categories_nodes":[],"categories_segments":[],"categories_sizes":[],"default_left":[0,0,0,0,0,0,0],"id":11,"left_children":[1,-1,3,5,-1,-1,-1],"loss_changes":[1.4240224E1,0E0,3.5006416E0,1.8536726E1,0E0,0E0,0E0],"parents":[2147483647,0,0,2,2,3,3],"right_children":[2,-1,4,6,-1,-1,-1],"split_conditions":[5.45388E0,2.0531578E-1,1.21786736E2,1.1970848E2,-4.9649563E-2,-4.7810275E-2,2.5479206E-1],"split_indices":[2,0,3,3,0,0,0],"split_type":[0,0,0,0,0,0,0],"sum_hessian":[2.0867138E1,2.6531336E0,1.8214005E1,8.601935E0,9.61207E0,6.8540483E0,1.7478869E0],"tree_param":{"num_deleted":"0","num_feature":"5","num_nodes":"7","size_leaf_vector":"1"}},{"base_weights":[-1.5181467E-1,9.139335E-2,-2.726366E-1,-4.3954E-1,1.1155717E-1,-4.9300767E-2,-2.5836307E-1,8.058606E-1,-4.2718425E-2,1.8299764E-2,-4.1857436E-2,-2.762754E-2,1.3870367E-1],"categories":[],"categories_nodes":[],"categories_segments":[],"categories_sizes":[],"default_left":[0,0,0,0,0,0,0,0,0,0,0,0,0],"id":12,"left_children":[1,-1,3,5,7,-1,9,11,-1,-1,-1,-1,-1],"loss_changes":[3.0193753E0,0E0,1.3374712E0,1.0281324E-2,2.9188044E0,0E0,4.5413232E-1,2.4924014E0,0E0,0E0,0E0,0E0,0E0],"parents":[2147483647,0,0,2,2,3,3,4,4,6,6,7,7],"right_children":[2,-1,4,6,8,-1,10,12,-1,-1,-1,-1,-1],"split_conditions":[7.8E1,9.139335E-2,6.5834975E0,1.25E2,6.596641E0,-4.9300767E-2,6.5529284E0,1.2116429E2,-4.2718425E-2,1.8299764E-2,-4.1857436E-2,-2.762754E-2,1.3870367E-1],"split_indices":[1,0,2,1,2,0,2,3,0,0,0,0,0],"split_type":[0,0,0,0,0,0,0,0,0,0,0,0,0],"sum_hessian":[2.0513514E1,1.4203717E0,1.9093142E1,1.3210228E1,5.8829126E0,8.871109E0,4.339119E0,2.3537261E0,3.5291867E0,1.1177206E0,3.2213984E0,1.0057224E0,1.3480036E0],"tree_param":{"num_deleted":"0","num_feature":"5","num_nodes":"13","size_leaf_vector":"1"}},{"base_weights":[-2.7823767E-1,7.1215205E-2,-4.1204283E-1,-5.076769E-2,-1.300286E-1,4.085023E-2,-4.248921E-2],"categories":[],"categories_nodes":[],"categories_segments":[],"categories_sizes":[],"default_left":[0,0,0,0,0,0,0],"id":13,"left_children":[1,-1,3,-1,5,-1,-1],"loss_changes":[3.0077782E0,0E0,4.3774128E-1,0E0,1.1381259E0,0E0,0E0],"parents":[2147483647,0,0,2,2,4,4],"right_children":[2,-1,4,-1,6,-1,-1],"split_conditions":[3.2490337E1,7.1215205E-2,1.31E2,-5.076769E-2,1.33E2,4.085023E-2,-4.248921E-2],"split_indices":[3,0,1,0,1,0,0],"split_type":[0,0,0,0,0,0,0],"sum_hessian":[1.9482615E1,1.8044267E0,1.7678186E1,1.2603889E1,5.074298E0,1.658982E0,3.4153159E0],"tree_param":{"num_deleted":"0","num_feature":"5","num_nodes":"7","size_leaf_vector":"1"}},{"base_weights":[3.059836E-1,7.004252E-1,-4.8114147E-2,-3.215353E-2,2.8775403E-1,9.9867785E-1,-4.8961986E-2,-3.6051925E-2,2.2947402E-1],"categories":[],"categories_nodes":[],"categories_segments":[],"categories_sizes":[],"default_left":[0,0,0,0,0,0,0,0,0],"id":14,"left_children":[1,3,-1,5,-1,7,-1,-1,-1],"loss_changes":[7.4060397E0,2.4933035E1,0E0,6.4508133E0,0E0,8.252428E0,0E0,0E0,0E0],"parents":[2147483647,0,0,1,1,3,3,5,5],"right_children":[2,4,-1,6,-1,8,-1,-1,-1],"split_conditions":[1.6348343E2,1.5244263E2,-4.8114147E-2,6.217656E0,2.8775403E-1,5.6918535E0,-4.8961986E-2,-3.6051925E-2,2.2947402E-1],"split_indices":[3,3,0,2,0,2,0,0,0],"split_type":[0,0,0,0,0,0,0,0,0],"sum_hessian":[2.1768463E1,1.4574888E1,7.193574E0,1.1642521E1,2.9323678E0,3.2149816E0,8.427539E0,1.921605E0,1.2933766E0],"tree_param":{"num_deleted":"0","num_feature":"5","num_nodes":"9","size_leaf_vector":"1"}},{"base_weights":[2.0288673E-1,-2.2774942E-2,1.669647E-1,5.801342E-1,-2.501717E-1,-4.1042414E-2,1.752833E-1,-4.8616324E-2,6.620389E-2,-4.2700376E-2,6.266686E-2],"categories":[],"categories_nodes":[],"categories_segments":[],"categories_sizes":[],"default_left":[0,0,0,0,0,0,0,0,0,0,0],"id":15,"left_children":[1,3,-1,5,7,-1,-1,-1,9,-1,-1],"loss_changes":[7.305741E0,2.8893487E0,0E0,7.4372816E0,1.1695157E0,0E0,0E0,0E0,2.309895E0,0E0,0E0],"parents":[2147483647,0,0,1,1,3,3,4,4,8,8],"right_children":[2,4,-1,6,8,-1,-1,-1,10,-1,-1],"split_conditions":[6.6181626E0,8.82E2,1.669647E-1,9.5E1,1.27E2,-4.1042414E-2,1.752833E-1,-4.8616324E-2,1.248E3,-4.2700376E-2,6.266686E-2],"split_indices":[2,0,0,1,1,0,0,0,0,0,0],"split_type":[0,0,0,0,0,0,0,0,0,0,0],"sum_hessian":[2.0957401E1,1.901622E1,1.9411806E0,4.783164E0,1.4233056E1,2.9453204E0,1.8378437E0,7.8447895E0,6.3882666E0,3.524681E0,2.8635855E0],"tree_param":{"num_deleted":"0","num_feature":"5","num_nodes":"11","size_leaf_vector":"1"}},{"base_weights":[-2.772208E-1,3.535199E-1,-4.5344946E-1,-4.062535E-2,1.5516773E-1,-1.9098793E-1,-5.058358E-2,1.8203048E-2,-3.7739195E-2],"categories":[],"categories_nodes":[],"categories_segments":[],"categories_sizes":[],"default_left":[0,0,0,0,0,0,0,0,0],"id":16,"left_children":[1,3,5,-1,-1,7,-1,-1,-1],"loss_changes":[2.4331622E0,5.206921E0,1.2916136E-1,0E0,0E0,3.7037766E-1,0E0,0E0,0E0],"parents":[2147483647,0,0,1,1,2,2,5,5],"right_children":[2,4,6,-1,-1,8,-1,-1,-1],"split_conditions":[6.3794785E1,6.359711E0,2.4221043E1,-4.062535E-2,1.5516773E-1,1.615E3,-5.058358E-2,1.8203048E-2,-3.7739195E-2],"split_indices":[3,2,4,0,0,0,0,0,0],"split_type":[0,0,0,0,0,0,0,0,0],"sum_hessian":[1.9447727E1,4.0273595E0,1.5420367E1,2.8690057E0,1.1583538E0,3.3387256E0,1.2081641E1,1.1203079E0,2.2184176E0],"tree_param":{"num_deleted":"0","num_feature":"5","num_nodes":"9","size_leaf_vector":"1"}},{"base_weights":[-9.856531E-2,-3.53194E-1,2.7424288E-1,-4.83945E-2,-8.538106E-2,-9.144457E-2,1.3352264E-1,7.032748E-2,-4.262848E-2,1.17095865E-1,-4.6689592E-2],"categories":[],"categories_nodes":[],"categories_segments":[],"categories_sizes":[],"default_left":[0,0,0,0,0,0,0,0,0,0,0],"id":17,"left_children":[1,3,5,-1,7,9,-1,-1,-1,-1,-1],"loss_changes":[2.10636E0,4.1442585E-1,3.673625E0,0E0,1.7741675E0,4.2168155E0,0E0,0E0,0E0,0E0,0E0],"parents":[2147483647,0,0,1,1,2,2,4,4,5,5],"right_children":[2,4,6,-1,8,10,-1,-1,-1,-1,-1],"split_conditions":[6.5624137E0,6.4940577E0,1.7527809E2,-4.83945E-2,6.665723E1,8.7182014E1,1.3352264E-1,7.032748E-2,-4.262848E-2,1.17095865E-1,-4.6689592E-2],"split_indices":[2,2,3,0,3,3,0,0,0,0,0],"split_type":[0,0,0,0,0,0,0,0,0,0,0],"sum_hessian":[2.0168743E1,1.2015052E1,8.153691E0,7.5311737E0,4.483878E0,6.7433004E0,1.4103906E0,1.0324376E0,3.4514408E0,1.0600903E0,5.6832104E0],"tree_param":{"num_deleted":"0","num_feature":"5","num_nodes":"11","size_leaf_vector":"1"}},{"base_weights":[6.1006572E-2,-4.9153563E-2,4.5908856E-1,1.451239E0,-2.5382978E-1,7.1124315E-1,2.2006021E-1,6.9961034E-2,-4.7623117E-2,1.7572023E-1,-3.7288927E-2],"categories":[],"categories_nodes":[],"categories_segments":[],"categories_sizes":[],"default_left":[0,0,0,0,0,0,0,0,0,0,0],"id":18,"left_children":[1,-1,3,5,7,9,-1,-1,-1,-1,-1],"loss_changes":[5.0919294E0,0E0,9.82972E0,1.6187696E0,2.164106E0,5.606634E0,0E0,0E0,0E0,0E0,0E0],"parents":[2147483647,0,0,2,2,3,3,4,4,5,5],"right_children":[2,-1,4,6,8,10,-1,-1,-1,-1,-1],"split_conditions":[1.18E2,-4.9153563E-2,1.27E2,1.22E3,8.7756645E1,9.14E2,2.2006021E-1,6.9961034E-2,-4.7623117E-2,1.7572023E-1,-3.7288927E-2],"split_indices":[1,0,1,0,3,0,0,0,0,0,0],"split_type":[0,0,0,0,0,0,0,0,0,0,0],"sum_hessian":[2.112373E1,8.747435E0,1.2376295E1,4.741725E0,7.63457E0,3.3664687E0,1.3752567E0,1.0381756E0,6.5963945E0,1.3974178E0,1.9690508E0],"tree_param":{"num_deleted":"0","num_feature":"5","num_nodes":"11","size_leaf_vector":"1"}},{"base_weights":[1.8818209E-2,-2.58554E-1,7.871184E-1,-4.848026E-2,1.9613061E-2,-4.0963594E-2,2.2404599E-1,1.2530737E-1,-4.6349544E-2],"categories":[],"categories_nodes":[],"categories_segments":[],"categories_sizes":[],"default_left":[0,0,0,0,0,0,0,0,0],"id":19,"left_children":[1,3,5,-1,7,-1,-1,-1,-1],"loss_changes":[4.523363E0,9.9423194E-1,1.0700054E1,0E0,5.3355756E0,0E0,0E0,0E0,0E0],"parents":[2147483647,0,0,1,1,2,2,4,4],"right_children":[2,4,6,-1,8,-1,-1,-1,-1],"split_conditions":[1.515E3,1.28E2,2.4322983E1,-4.848026E-2,1.106E3,-4.0963594E-2,2.2404599E-1,1.2530737E-1,-4.6349544E-2],"split_indices":[0,1,4,0,0,0,0,0,0],"split_type":[0,0,0,0,0,0,0,0,0],"sum_hessian":[1.9270985E1,1.4646696E1,4.624287E0,7.667473E0,6.9792237E0,2.9298465E0,1.6944406E0,1.515673E0,5.463551E0],"tree_param":{"num_deleted":"0","num_feature":"5","num_nodes":"9","size_leaf_vector":"1"}},{"base_weights":[-1.04850225E-1,-2.932803E-1,6.4132714E-1,-1.7468417E-2,-4.9449146E-2,-3.9957535E-2,2.1554771E-1,-4.741504E-2,1.569539E-1],"categories":[],"categories_nodes":[],"categories_segments":[],"categories_sizes":[],"default_left":[0,0,0,0,0,0,0,0,0],"id":20,"left_children":[1,3,5,7,-1,-1,-1,-1,-1],"loss_changes":[3.201795E0,9.79144E-1,8.166814E0,6.936781E0,0E0,0E0,0E0,0E0,0E0],"parents":[2147483647,0,0,1,1,2,2,3,3],"right_children":[2,4,6,8,-1,-1,-1,-1,-1],"split_conditions":[2.0858739E2,1.0875E2,6.0409174E0,1E3,-4.9449146E-2,-3.9957535E-2,2.1554771E-1,-4.741504E-2,1.569539E-1],"split_indices":[3,3,2,0,0,0,0,0,0],"split_type":[0,0,0,0,0,0,0,0,0],"sum_hessian":[2.0434267E1,1.6799015E1,3.6352522E0,7.54435E0,9.254665E0,2.590511E0,1.0447413E0,6.403026E0,1.1413239E0],"tree_param":{"num_deleted":"0","num_feature":"5","num_nodes":"9","size_leaf_vector":"1"}},{"base_weights":[2.2735596E-2,-3.443562E-1,1.7125924E0,-4.3896854E-1,5.3695217E-2,-3.031806E-2,2.7422142E-1,-4.9905915E-2,-1.5711676E-1,7.220611E-2,-3.779694E-2,2.158635E-2,-3.6094386E-2],"categories":[],"categories_nodes":[],"categories_segments":[],"categories_sizes":[],"default_left":[0,0,0,0,0,0,0,0,0,0,0,0,0],"id":21,"left_children":[1,3,5,7,9,-1,-1,-1,11,-1,-1,-1,-1],"loss_changes":[1.3090003E1,6.7838526E-1,8.642734E0,1.6136432E-1,1.4933442E0,0E0,0E0,0E0,3.7800717E-1,0E0,0E0,0E0,0E0],"parents":[2147483647,0,0,1,1,2,2,3,3,4,4,8,8],"right_children":[2,4,6,8,10,-1,-1,-1,12,-1,-1,-1,-1],"split_conditions":[2.2757143E2,6.5949135E0,8.9E1,1.28E2,1.12E3,-3.031806E-2,2.7422142E-1,-4.9905915E-2,1.1113771E2,7.220611E-2,-3.779694E-2,2.158635E-2,-3.6094386E-2],"split_indices":[3,2,1,1,0,0,0,0,3,0,0,0,0],"split_type":[0,0,0,0,0,0,0,0,0,0,0,0,0],"sum_hessian":[1.9150904E1,1.6387276E1,2.763627E0,1.3157171E1,3.230105E0,1.1728963E0,1.5907309E0,1.0209805E1,2.9473667E0,1.0035408E0,2.2265642E0,1.0206473E0,1.9267194E0],"tree_param":{"num_deleted":"0","num_feature":"5","num_nodes":"13","size_leaf_vector":"1"}},{"base_weights":[4.9327627E-1,2.3765086E-1,2.0741947E-2,4.7390044E-1,-4.8093893E-2,-4.667927E-2,2.2540145E-1],"categories":[],"categories_nodes":[],"categories_segments":[],"categories_sizes":[],"default_left":[0,0,0,0,0,0,0],"id":22,"left_children":[1,-1,3,5,-1,-1,-1],"loss_changes":[1.7355934E1,0E0,4.0118685E0,1.6539639E1,0E0,0E0,0E0],"parents":[2147483647,0,0,2,2,3,3],"right_children":[2,-1,4,6,-1,-1,-1],"split_conditions":[5.45388E0,2.3765086E-1,1.3076294E2,1.1113771E2,-4.8093893E-2,-4.667927E-2,2.2540145E-1],"split_indices":[2,0,3,3,0,0,0],"split_type":[0,0,0,0,0,0,0],"sum_hessian":[1.8558811E1,2.9144232E0,1.5644388E1,8.248791E0,7.3955965E0,5.8795457E0,2.3692455E0],"tree_param":{"num_deleted":"0","num_feature":"5","num_nodes":"7","size_leaf_vector":"1"}},{"base_weights":[-9.873873E-2,9.68234E-2,-2.3402691E-1,5.2871667E-2,-4.8983183E-2,-4.796734E-2,2.0545375E-1],"categories":[],"categories_nodes":[],"categories_segments":[],"categories_sizes":[],"default_left":[0,0,0,0,0,0,0],"id":23,"left_children":[1,-1,3,5,-1,-1,-1],"loss_changes":[2.9655323E0,0E0,1.3208389E0,1.081321E1,0E0,0E0,0E0],"parents":[2147483647,0,0,2,2,3,3],"right_children":[2,-1,4,6,-1,-1,-1],"split_conditions":[7.8E1,9.68234E-2,1.426369E2,1.2116429E2,-4.8983183E-2,-4.796734E-2,2.0545375E-1],"split_indices":[1,0,3,3,0,0,0],"split_type":[0,0,0,0,0,0,0],"sum_hessian":[1.7974453E1,1.3298154E0,1.6644636E1,8.219429E0,8.425208E0,7.092757E0,1.1266718E0],"tree_param":{"num_deleted":"0","num_feature":"5","num_nodes":"7","size_leaf_vector":"1"}},{"base_weights":[-1.8908468E-1,7.4031556E-1,-3.55098E-1,-3.3533175E-2,1.7141326E-1,-5.074155E-2,1.2216226E-1,6.7691796E-2,-3.8631838E-2],"categories":[],"categories_nodes":[],"categories_segments":[],"categories_sizes":[],"default_left":[0,0,0,0,0,0,0,0,0],"id":24,"left_children":[1,3,5,-1,-1,-1,7,-1,-1],"loss_changes":[3.5017254E0,4.2467546E0,1.4058297E0,0E0,0E0,0E0,1.7504483E0,0E0,0E0],"parents":[2147483647,0,0,1,1,2,2,6,6],"right_children":[2,4,6,-1,-1,-1,8,-1,-1],"split_conditions":[3.2490337E1,7.3E1,1.31E2,-3.3533175E-2,1.7141326E-1,-5.074155E-2,1.5244263E2,6.7691796E-2,-3.8631838E-2],"split_indices":[3,1,1,0,0,0,3,0,0],"split_type":[0,0,0,0,0,0,0,0,0],"sum_hessian":[1.9991518E1,2.5054977E0,1.748602E1,1.502042E0,1.0034556E0,1.3207626E1,4.2783937E0,1.8876734E0,2.3907201E0],"tree_param":{"num_deleted":"0","num_feature":"5","num_nodes":"9","size_leaf_vector":"1"}},{"base_weights":[2.0096147E-1,4.7529927E-1,-4.618771E-2,-2.1496728E-2,1.3266267E0,7.673606E-1,-4.707771E-2,1.6211745E-1,1.4733175E-2,-3.557657E-2,1.827731E-1],"categories":[],"categories_nodes":[],"categories_segments":[],"categories_sizes":[],"default_left":[0,0,0,0,0,0,0,0,0,0,0],"id":25,"left_children":[1,3,-1,5,7,9,-1,-1,-1,-1,-1],"loss_changes":[3.9512954E0,6.375739E0,0E0,4.0688815E0,1.6877232E0,5.623864E0,0E0,0E0,0E0,0E0,0E0],"parents":[2147483647,0,0,1,1,3,3,4,4,5,5],"right_children":[2,4,-1,6,8,10,-1,-1,-1,-1,-1],"split_conditions":[1.401E3,1.22E3,-4.618771E-2,9.6E1,2.5235508E1,8.9E1,-4.707771E-2,1.6211745E-1,1.4733175E-2,-3.557657E-2,1.827731E-1],"split_indices":[0,0,0,1,4,1,0,0,0,0,0],"split_type":[0,0,0,0,0,0,0,0,0,0,0],"sum_hessian":[1.952206E1,1.4007517E1,5.514543E0,9.461163E0,4.546355E0,3.1762493E0,6.284913E0,3.3379505E0,1.2084044E0,1.865176E0,1.3110734E0],"tree_param":{"num_deleted":"0","num_feature":"5","num_nodes":"11","size_leaf_vector":"1"}},{"base_weights":[1.8739672E-2,-1.993909E-1,9.6212083E-1,2.2626102E-1,-3.1434312E-1,-3.4147404E-2,1.8530245E-1,-3.939217E-2,1.21189885E-1,-4.9446493E-2,5.850417E-2,-4.283893E-2,1.0041304E-1],"categories":[],"categories_nodes":[],"categories_segments":[],"categories_sizes":[],"default_left":[0,0,0,0,0,0,0,0,0,0,0,0,0],"id":26,"left_children":[1,3,5,7,9,-1,-1,-1,-1,-1,11,-1,-1],"loss_changes":[4.717755E0,9.8570806E-1,5.6291203E0,3.2623851E0,1.0454168E0,0E0,0E0,0E0,0E0,0E0,3.1118565E0,0E0,0E0],"parents":[2147483647,0,0,1,1,2,2,3,3,4,4,10,10],"right_children":[2,4,6,8,10,-1,-1,-1,-1,-1,12,-1,-1],"split_conditions":[1.33E2,4.3614746E1,1.5388905E2,9.4E1,1.27E2,-3.4147404E-2,1.8530245E-1,-3.939217E-2,1.21189885E-1,-4.9446493E-2,1.6348343E2,-4.283893E-2,1.0041304E-1],"split_indices":[1,3,3,1,1,0,0,0,0,0,3,0,0],"split_type":[0,0,0,0,0,0,0,0,0,0,0,0,0],"sum_hessian":[2.099393E1,1.769183E1,3.3021E0,3.5560338E0,1.4135797E1,1.5909249E0,1.711175E0,2.5511427E0,1.004891E0,9.311327E0,4.8244696E0,3.5457673E0,1.2787021E0],"tree_param":{"num_deleted":"0","num_feature":"5","num_nodes":"13","size_leaf_vector":"1"}},{"base_weights":[-2.268743E-1,4.8028138E-1,-5.095319E-2,-4.3772902E-2,2.1414593E-1],"categories":[],"categories_nodes":[],"categories_segments":[],"categories_sizes":[],"default_left":[0,0,0,0,0],"id":27,"left_children":[1,3,-1,-1,-1],"loss_changes":[4.3059645E0,1.0570596E1,0E0,0E0,0E0],"parents":[2147483647,0,0,1,1],"right_children":[2,4,-1,-1,-1],"split_conditions":[6.3794785E1,1.11E2,-5.095319E-2,-4.3772902E-2,2.1414593E-1],"split_indices":[3,1,0,0,0],"split_type":[0,0,0,0,0],"sum_hessian":[1.931812E1,5.316952E0,1.4001167E1,3.8988438E0,1.4181085E0],"tree_param":{"num_deleted":"0","num_feature":"5","num_nodes":"5","size_leaf_vector":"1"}},{"base_weights":[-1.0245419E-1,-3.6414483E-1,3.3592424E-1,-1.05087765E-1,-4.8779186E-2,-3.069696E-1,1.561806E0,-4.2900227E-2,6.750653E-2,2.168878E-2,-4.45847E-2,1.9039432E-2,2.2067618E-1],"categories":[],"categories_nodes":[],"categories_segments":[],"categories_sizes":[],"default_left":[0,0,0,0,0,0,0,0,0,0,0,0,0],"id":28,"left_children":[1,3,5,7,-1,9,11,-1,-1,-1,-1,-1,-1],"loss_changes":[2.573806E0,3.9273512E-1,7.184811E0,1.7433965E0,0E0,5.6354314E-1,2.3140383E0,0E0,0E0,0E0,0E0,0E0,0E0],"parents":[2147483647,0,0,1,1,2,2,3,3,5,5,6,6],"right_children":[2,4,6,8,-1,10,12,-1,-1,-1,-1,-1,-1],"split_conditions":[6.565935E0,8.83E2,1.369E3,1.13E2,-4.8779186E-2,6.57685E0,1.31E2,-4.2900227E-2,6.750653E-2,2.168878E-2,-4.45847E-2,1.9039432E-2,2.2067618E-1],"split_indices":[2,0,0,1,0,2,1,0,0,0,0,0,0],"split_type":[0,0,0,0,0,0,0,0,0,0,0,0,0],"sum_hessian":[2.0369343E1,1.2861179E1,7.5081635E0,4.75297E0,8.10821E0,5.4169335E0,2.0912304E0,3.6765823E0,1.0763881E0,1.017419E0,4.399514E0,1.0831861E0,1.0080441E0],"tree_param":{"num_deleted":"0","num_feature":"5","num_nodes":"13","size_leaf_vector":"1"}},{"base_weights":[-5.390165E-2,-3.580613E-1,4.1052815E-1,-4.8773464E-2,-6.527868E-2,1.0870452E0,-2.5432348E-1,-4.1659288E-2,7.009926E-2,1.0744016E-2,1.4631814E-1,2.108141E-2,-4.173147E-2],"categories":[],"categories_nodes":[],"categories_segments":[],"categories_sizes":[],"default_left":[0,0,0,0,0,0,0,0,0,0,0,0,0],"id":29,"left_children":[1,3,5,-1,7,9,11,-1,-1,-1,-1,-1,-1],"loss_changes":[3.1394658E0,4.7443342E-1,4.256675E0,0E0,1.7047101E0,1.5287848E0,4.8777497E-1,0E0,0E0,0E0,0E0,0E0,0E0],"parents":[2147483647,0,0,1,1,2,2,4,4,5,5,6,6],"right_children":[2,4,6,-1,8,10,12,-1,-1,-1,-1,-1,-1],"split_conditions":[2.4824785E1,1.9576494E2,1.27E2,-4.8773464E-2,1.16E2,1.22E2,9.879005E1,-4.1659288E-2,7.009926E-2,1.0744016E-2,1.4631814E-1,2.108141E-2,-4.173147E-2],"split_indices":[4,3,1,0,1,1,3,0,0,0,0,0,0],"split_type":[0,0,0,0,0,0,0,0,0,0,0,0,0],"sum_hessian":[2.0184017E1,1.233484E1,7.849178E0,8.087174E0,4.247665E0,3.5757098E0,4.273468E0,3.2252944E0,1.0223708E0,1.3487312E0,2.2269788E0,1.0327735E0,3.2406943E0],"tree_param":{"num_deleted":"0","num_feature":"5","num_nodes":"13","size_leaf_vector":"1"}},{"base_weights":[4.0822577E-2,-2.1677244E-1,8.1371284E-1,1.8013987E-1,-4.9520027E-2,-4.0266223E-2,2.2234201E-1,-4.624432E-2,2.029759E-1],"categories":[],"categories_nodes":[],"categories_segments":[],"categories_sizes":[],"default_left":[0,0,0,0,0,0,0,0,0],"id":30,"left_children":[1,3,5,7,-1,-1,-1,-1,-1],"loss_changes":[4.3908553E0,1.9310385E0,1.0329592E1,9.976817E0,0E0,0E0,0E0,0E0,0E0],"parents":[2147483647,0,0,1,1,2,2,3,3],"right_children":[2,4,6,8,-1,-1,-1,-1,-1],"split_conditions":[2.0636568E2,8.846385E1,6.3121834E0,7.6688255E1,-4.9520027E-2,-4.0266223E-2,2.2234201E-1,-4.624432E-2,2.029759E-1],"split_indices":[3,3,2,3,0,0,0,0,0],"split_type":[0,0,0,0,0,0,0,0,0],"sum_hessian":[2.0168358E1,1.566645E1,4.501909E0,6.6044693E0,9.06198E0,2.8001478E0,1.701761E0,5.458196E0,1.1462731E0],"tree_param":{"num_deleted":"0","num_feature":"5","num_nodes":"9","size_leaf_vector":"1"}},{"base_weights":[-4.426553E-2,-2.797365E-1,7.821591E-1,-3.4651168E-2,-4.8675645E-2,-3.8738903E-2,2.0285852E-1,-4.7556754E-2,1.573358E-1],"categories":[],"categories_nodes":[],"categories_segments":[],"categories_sizes":[],"default_left":[0,0,0,0,0,0,0,0,0],"id":31,"left_children":[1,3,5,7,-1,-1,-1,-1,-1],"loss_changes":[4.262048E0,8.409339E-1,7.8861704E0,7.0003343E0,0E0,0E0,0E0,0E0,0E0],"parents":[2147483647,0,0,1,1,2,2,3,3],"right_children":[2,4,6,8,-1,-1,-1,-1,-1],"split_conditions":[2.180177E2,1.0875E2,1E2,8.846385E1,-4.8675645E-2,-3.8738903E-2,2.0285852E-1,-4.7556754E-2,1.573358E-1],"split_indices":[3,3,1,3,0,0,0,0,0],"split_type":[0,0,0,0,0,0,0,0,0],"sum_hessian":[1.9777338E1,1.5906618E1,3.8707201E0,7.81822E0,8.088398E0,2.3525102E0,1.5182099E0,6.688487E0,1.1297333E0],"tree_param":{"num_deleted":"0","num_feature":"5","num_nodes":"9","size_leaf_vector":"1"}},{"base_weights":[2.7947623E-2,-2.5329366E-1,1.3963956E0,-3.3490038E-1,2.6907375E-1,2.0723447E-2,1.7547408E-1,-4.2751956E-1,-9.251585E-3,6.9014065E-2,-2.7966613E-2,-4.9049567E-2,-1.7722355E-2,6.965577E-2,-3.9851766E-2],"categories":[],"categories_nodes":[],"categories_segments":[],"categories_sizes":[],"default_left":[0,0,0,0,0,0,0,0,0,0,0,0,0,0,0],"id":32,"left_children":[1,3,5,7,9,-1,-1,11,13,-1,-1,-1,-1,-1,-1],"loss_changes":[8.680904E0,8.912996E-1,1.2736359E0,4.9975693E-1,9.078834E-1,0E0,0E0,1.17678404E-1,1.574459E0,0E0,0E0,0E0,0E0,0E0,0E0],"parents":[2147483647,0,0,1,1,2,2,3,3,4,4,7,7,8,8],"right_children":[2,4,6,8,10,-1,-1,12,14,-1,-1,-1,-1,-1,-1],"split_conditions":[1.64E3,1.568E3,9.1E1,6.5949135E0,1.02E2,2.0723447E-2,1.7547408E-1,1.28E2,6.602474E0,6.9014065E-2,-2.7966613E-2,-4.9049567E-2,-1.7722355E-2,6.965577E-2,-3.9851766E-2],"split_indices":[0,0,1,2,1,0,0,1,2,0,0,0,0,0,0],"split_type":[0,0,0,0,0,0,0,0,0,0,0,0,0,0,0],"sum_hessian":[2.0636747E1,1.7794544E1,2.842203E0,1.5700603E1,2.0939426E0,1.023627E0,1.8185759E0,1.1980385E1,3.720217E0,1.0389999E0,1.0549426E0,8.805261E0,3.1751244E0,1.0418121E0,2.678405E0],"tree_param":{"num_deleted":"0","num_feature":"5","num_nodes":"15","size_leaf_vector":"1"}},{"base_weights":[4.0004763E-1,1.8741666E-1,-8.7807566E-2,3.6302254E-1,-4.8389684E-2,-4.538211E-2,1.7960148E-1],"categories":[],"categories_nodes":[],"categories_segments":[],"categories_sizes":[],"default_left":[0,0,0,0,0,0,0],"id":33,"left_children":[1,-1,3,5,-1,-1,-1],"loss_changes":[1.4727494E1,0E0,3.0631227E0,1.0335904E1,0E0,0E0,0E0],"parents":[2147483647,0,0,2,2,3,3],"right_children":[2,-1,4,6,-1,-1,-1],"split_conditions":[5.45388E0,1.8741666E-1,1.3076294E2,1.11512115E2,-4.8389684E-2,-4.538211E-2,1.7960148E-1],"split_indices":[2,0,3,3,0,0,0],"split_type":[0,0,0,0,0,0,0],"sum_hessian":[1.9250011E1,4.0800266E0,1.5169984E1,7.133778E0,8.036206E0,4.9789495E0,2.1548283E0],"tree_param":{"num_deleted":"0","num_feature":"5","num_nodes":"7","size_leaf_vector":"1"}},{"base_weights":[-1.7608369E-2,1.3963419E-1,-2.3951524E-1,-4.2534363E-2,1.8915024E-1,8.300718E-1,-4.0369224E-2,1.4662549E-2,1.1626178E-1],"categories":[],"categories_nodes":[],"categories_segments":[],"categories_sizes":[],"default_left":[0,0,0,0,0,0,0,0,0],"id":34,"left_children":[1,-1,3,-1,5,7,-1,-1,-1],"loss_changes":[6.5577655E0,0E0,1.5140902E0,0E0,2.6660836E0,5.738728E-1,0E0,0E0,0E0],"parents":[2147483647,0,0,2,2,4,4,5,5],"right_children":[2,-1,4,-1,6,8,-1,-1,-1],"split_conditions":[4.974954E0,1.3963419E-1,6.5834975E0,-4.2534363E-2,6.596641E0,2.5057877E1,-4.0369224E-2,1.4662549E-2,1.1626178E-1],"split_indices":[2,0,2,0,2,4,0,0,0],"split_type":[0,0,0,0,0,0,0,0,0],"sum_hessian":[1.8834316E1,1.8369755E0,1.6997341E1,1.18626E1,5.134741E0,2.2750404E0,2.8597002E0,1.216276E0,1.0587643E0],"tree_param":{"num_deleted":"0","num_feature":"5","num_nodes":"9","size_leaf_vector":"1"}},{"base_weights":[-1.3955382E-1,7.004864E-1,-2.975766E-1,-3.3178926E-2,1.5668666E-1,-7.069502E-2,-4.883252E-2,-4.812496E-2,1.6605133E-1],"categories":[],"categories_nodes":[],"categories_segments":[],"categories_sizes":[],"default_left":[0,0,0,0,0,0,0,0,0],"id":35,"left_children":[1,3,5,-1,-1,7,-1,-1,-1],"loss_changes":[2.981615E0,3.7446856E0,7.5680673E-1,0E0,0E0,7.5660853E0,0E0,0E0,0E0],"parents":[2147483647,0,0,1,1,2,2,5,5],"right_children":[2,4,6,-1,-1,8,-1,-1,-1],"split_conditions":[3.2490337E1,4.822896E0,1.5244263E2,-3.3178926E-2,1.5668666E-1,1.3220615E2,-4.883252E-2,-4.812496E-2,1.6605133E-1],"split_indices":[3,2,3,0,0,3,0,0,0],"split_type":[0,0,0,0,0,0,0,0,0],"sum_hessian":[1.9890856E1,2.605792E0,1.7285063E1,1.470618E0,1.135174E0,8.520805E0,8.764258E0,7.4710636E0,1.0497413E0],"tree_param":{"num_deleted":"0","num_feature":"5","num_nodes":"9","size_leaf_vector":"1"}},{"base_weights":[3.1140274E-1,6.446934E-1,-4.703499E-2,-7.2151427E-3,2.0421417E-1,8.9218044E-1,-4.8020434E-2,-3.3932794E-2,1.7354241E-1],"categories":[],"categories_nodes":[],"categories_segments":[],"categories_sizes":[],"default_left":[0,0,0,0,0,0,0,0,0],"id":36,"left_children":[1,3,-1,5,-1,7,-1,-1,-1],"loss_changes":[6.1140137E0,1.46433525E1,0E0,5.510353E0,0E0,5.2277894E0,0E0,0E0,0E0],"parents":[2147483647,0,0,1,1,3,3,5,5],"right_children":[2,4,-1,6,-1,8,-1,-1,-1],"split_conditions":[1.6348343E2,1.5244263E2,-4.703499E-2,9.6E1,2.0421417E-1,8.9E1,-4.8020434E-2,-3.3932794E-2,1.7354241E-1],"split_indices":[3,3,0,1,0,1,0,0,0],"split_type":[0,0,0,0,0,0,0,0,0],"sum_hessian":[2.1301914E1,1.505761E1,6.2443037E0,1.09461E1,4.11151E0,3.4671004E0,7.4789996E0,1.6520172E0,1.8150831E0],"tree_param":{"num_deleted":"0","num_feature":"5","num_nodes":"9","size_leaf_vector":"1"}},{"base_weights":[5.9150808E-2,-1.9856289E-1,6.096233E-1,3.843817E-1,-4.1744038E-1,-4.344624E-2,1.7952772E0,-4.051872E-2,1.7056255E-1,-4.8837736E-2,-9.973896E-2,2.1477242E-1,5.9194602E-2,2.2009676E-2,-3.2291543E-2],"categories":[],"categories_nodes":[],"categories_segments":[],"categories_sizes":[],"default_left":[0,0,0,0,0,0,0,0,0,0,0,0,0,0,0],"id":37,"left_children":[1,3,5,7,9,-1,11,-1,-1,-1,13,-1,-1,-1,-1],"loss_changes":[3.2566197E0,2.177563E0,9.809091E0,5.736117E0,2.2111869E-1,0E0,2.5977802E-1,0E0,0E0,0E0,3.1676185E-1,0E0,0E0,0E0,0E0],"parents":[2147483647,0,0,1,1,2,2,3,3,4,4,6,6,10,10],"right_children":[2,4,6,8,10,-1,12,-1,-1,-1,14,-1,-1,-1,-1],"split_conditions":[1.29E2,5.4537334E1,1.5388905E2,9.6E1,1.27E2,-4.344624E-2,1.368E3,-4.051872E-2,1.7056255E-1,-4.8837736E-2,6.569103E0,2.1477242E-1,5.9194602E-2,2.2009676E-2,-3.2291543E-2],"split_indices":[1,3,3,1,1,0,0,0,0,0,2,0,0,0,0],"split_type":[0,0,0,0,0,0,0,0,0,0,0,0,0,0,0],"sum_hessian":[2.1102608E1,1.4808859E1,6.29375E0,3.83604E0,1.0972819E1,3.6835692E0,2.6101804E0,2.8351169E0,1.0009233E0,8.53082E0,2.441999E0,1.4118456E0,1.1983348E0,1.0093262E0,1.4326729E0],"tree_param":{"num_deleted":"0","num_feature":"5","num_nodes":"15","size_leaf_vector":"1"}},{"base_weights":[-1.097103E-1,6.194757E-1,-4.3363366E-1,-4.2270176E-2,1.9495541E-1,-1.4763881E-1,-4.9454886E-2,-3.4806203E-2,1.8643817E-2],"categories":[],"categories_nodes":[],"categories_segments":[],"categories_sizes":[],"default_left":[0,0,0,0,0,0,0,0,0],"id":38,"left_children":[1,3,5,-1,-1,7,-1,-1,-1],"loss_changes":[4.8475685E0,9.660421E0,1.7108107E-1,0E0,0E0,3.2507706E-1,0E0,0E0,0E0],"parents":[2147483647,0,0,1,1,2,2,5,5],"right_children":[2,4,6,-1,-1,8,-1,-1,-1],"split_conditions":[6.3794785E1,1.11E2,2.4221043E1,-4.2270176E-2,1.9495541E-1,1E2,-4.9454886E-2,-3.4806203E-2,1.8643817E-2],"split_indices":[3,1,4,0,0,1,0,0,0],"split_type":[0,0,0,0,0,0,0,0,0],"sum_hessian":[1.838584E1,5.3746085E0,1.301123E1,3.395935E0,1.9786733E0,2.8858654E0,1.0125365E1,1.7775788E0,1.1082866E0],"tree_param":{"num_deleted":"0","num_feature":"5","num_nodes":"9","size_leaf_vector":"1"}},{"base_weights":[-2.1773504E-2,-4.7152292E-2,2.3107314E-1,1.7583765E-1,-9.1562815E-2,-4.8851546E-2,9.1004777E-1,-3.4192372E-2,1.9890659E-1],"categories":[],"categories_nodes":[],"categories_segments":[],"categories_sizes":[],"default_left":[0,0,0,0,0,0,0,0,0],"id":39,"left_children":[1,-1,3,-1,5,-1,7,-1,-1],"loss_changes":[2.3798342E0,0E0,6.790664E0,0E0,5.238787E0,0E0,5.775357E0,0E0,0E0],"parents":[2147483647,0,0,2,2,4,4,6,6],"right_children":[2,-1,4,-1,6,-1,8,-1,-1],"split_conditions":[6.4851165E0,-4.7152292E-2,7.535573E1,1.7583765E-1,1.856662E2,-4.8851546E-2,1.27E2,-3.4192372E-2,1.9890659E-1],"split_indices":[2,0,3,0,3,0,1,0,0],"split_type":[0,0,0,0,0,0,0,0,0],"sum_hessian":[1.8969444E1,6.5153856E0,1.2454059E1,1.3959305E0,1.1058128E1,8.286385E0,2.7717433E0,1.5992588E0,1.1724844E0],"tree_param":{"num_deleted":"0","num_feature":"5","num_nodes":"9","size_leaf_vector":"1"}},{"base_weights":[-2.221517E-2,-4.8756406E-2,3.0989987E-1,-7.382571E-2,1.8081433E-1,1.4983113E-1,-4.9421776E-2],"categories":[],"categories_nodes":[],"categories_segments":[],"categories_sizes":[],"default_left":[0,0,0,0,0,0,0],"id":40,"left_children":[1,-1,3,5,-1,-1,-1],"loss_changes":[3.5080626E0,0E0,7.7720156E0,8.366192E0,0E0,0E0,0E0],"parents":[2147483647,0,0,2,2,3,3],"right_children":[2,-1,4,6,-1,-1,-1],"split_conditions":[6.5231657E0,-4.8756406E-2,1.8730455E2,9.14E2,1.8081433E-1,1.4983113E-1,-4.9421776E-2],"split_indices":[2,0,3,0,0,0,0],"split_type":[0,0,0,0,0,0,0],"sum_hessian":[2.0720999E1,8.434621E0,1.2286377E1,1.0538113E1,1.7482644E0,1.6823941E0,8.855719E0],"tree_param":{"num_deleted":"0","num_feature":"5","num_nodes":"7","size_leaf_vector":"1"}},{"base_weights":[2.82905E-2,-3.267817E-1,9.1453505E-1,-9.101037E-2,-4.8789E-2,-3.775932E-2,1.7099456E-1,-4.6267096E-2,1.13846175E-1],"categories":[],"categories_nodes":[],"categories_segments":[],"categories_sizes":[],"default_left":[0,0,0,0,0,0,0,0,0],"id":41,"left_children":[1,3,5,7,-1,-1,-1,-1,-1],"loss_changes":[7.0548906E0,5.6582177E-1,7.2280235E0,4.0683885E0,0E0,0E0,0E0,0E0,0E0],"parents":[2147483647,0,0,1,1,2,2,3,3],"right_children":[2,4,6,8,-1,-1,-1,-1,-1],"split_conditions":[1.515E3,9.89E2,1.05E2,1.25E2,-4.8789E-2,-3.775932E-2,1.7099456E-1,-4.6267096E-2,1.13846175E-1],"split_indices":[0,0,1,1,0,0,0,0,0],"split_type":[0,0,0,0,0,0,0,0,0],"sum_hessian":[2.0469496E1,1.5065004E1,5.4044914E0,6.750702E0,8.314302E0,2.2594101E0,3.145081E0,5.6626167E0,1.0880853E0],"tree_param":{"num_deleted":"0","num_feature":"5","num_nodes":"9","size_leaf_vector":"1"}},{"base_weights":[-1.7650716E-2,-2.0844413E-1,6.9703656E-1,1.2940425E-1,-4.851878E-2,-3.5902563E-2,1.648994E-1,-4.6507686E-2,1.8452382E-1],"categories":[],"categories_nodes":[],"categories_segments":[],"categories_sizes":[],"default_left":[0,0,0,0,0,0,0,0,0],"id":42,"left_children":[1,3,5,7,-1,-1,-1,-1,-1],"loss_changes":[2.8316205E0,1.5885967E0,4.9966745E0,9.159021E0,0E0,0E0,0E0,0E0,0E0],"parents":[2147483647,0,0,1,1,2,2,3,3],"right_children":[2,4,6,8,-1,-1,-1,-1,-1],"split_conditions":[2.180177E2,1.0875E2,6.0409174E0,8.846385E1,-4.851878E-2,-3.5902563E-2,1.648994E-1,-4.6507686E-2,1.8452382E-1],"split_indices":[3,3,2,3,0,0,0,0,0],"split_type":[0,0,0,0,0,0,0,0,0],"sum_hessian":[1.8700602E1,1.5319294E1,3.3813074E0,7.1378355E0,8.181458E0,1.8982844E0,1.4830229E0,5.842535E0,1.2953001E0],"tree_param":{"num_deleted":"0","num_feature":"5","num_nodes":"9","size_leaf_vector":"1"}},{"base_weights":[5.7290155E-2,-2.8031066E-1,1.3416668E0,-1.0101361E-2,-4.8858188E-2,-3.0462367E-2,2.030778E-1,-4.7150917E-2,1.69572E-1],"categories":[],"categories_nodes":[],"categories_segments":[],"categories_sizes":[],"default_left":[0,0,0,0,0,0,0,0,0],"id":43,"left_children":[1,3,5,7,-1,-1,-1,-1,-1],"loss_changes":[9.28267E0,9.569769E-1,5.664997E0,7.4590864E0,0E0,0E0,0E0,0E0,0E0],"parents":[2147483647,0,0,1,1,2,2,3,3],"right_children":[2,4,6,8,-1,-1,-1,-1,-1],"split_conditions":[2.1921826E2,1.1970848E2,8.9E1,9.955404E1,-4.8858188E-2,-3.0462367E-2,2.030778E-1,-4.7150917E-2,1.69572E-1],"split_indices":[3,3,1,3,0,0,0,0,0],"split_type":[0,0,0,0,0,0,0,0,0],"sum_hessian":[1.9540709E1,1.6092514E1,3.448194E0,7.461078E0,8.631437E0,1.1820992E0,2.2660947E0,6.442133E0,1.018945E0],"tree_param":{"num_deleted":"0","num_feature":"5","num_nodes":"9","size_leaf_vector":"1"}},{"base_weights":[3.3821097E-1,1.3116752E0,5.6559606E-3,6.5510017E-1,1.6243441E-1,3.896602E-1,-4.7887962E-2,1.3810977E-1,-3.5562932E-2,-4.703113E-2,1.6963744E-1],"categories":[],"categories_nodes":[],"categories_segments":[],"categories_sizes":[],"default_left":[0,0,0,0,0,0,0,0,0,0,0],"id":44,"left_children":[1,3,5,7,-1,9,-1,-1,-1,-1,-1],"loss_changes":[7.6024036E0,1.6378307E-1,3.633512E0,3.1367378E0,0E0,1.303107E1,0E0,0E0,0E0,0E0,0E0],"parents":[2147483647,0,0,1,1,2,2,3,3,5,5],"right_children":[2,4,6,8,-1,10,-1,-1,-1,-1,-1],"split_conditions":[5.45388E0,6.99E2,1.3076294E2,4.455851E0,1.6243441E-1,1.1970848E2,-4.7887962E-2,1.3810977E-1,-3.5562932E-2,-4.703113E-2,1.6963744E-1],"split_indices":[2,0,3,2,0,3,0,0,0,0,0],"split_type":[0,0,0,0,0,0,0,0,0,0,0],"sum_hessian":[2.250667E1,4.9812326E0,1.7525438E1,2.6053767E0,2.3758557E0,9.886217E0,7.6392207E0,1.3030045E0,1.3023723E0,6.3483424E0,3.5378745E0],"tree_param":{"num_deleted":"0","num_feature":"5","num_nodes":"11","size_leaf_vector":"1"}},{"base_weights":[-1.8967815E-1,7.033E-2,-3.0994436E-1,-3.9275187E-1,1.7183678E-1,-4.381547E-2,-5.9769098E-2,6.903263E-2,-3.241436E-2,2.1782871E-2,-2.9062694E-2],"categories":[],"categories_nodes":[],"categories_segments":[],"categories_sizes":[],"default_left":[0,0,0,0,0,0,0,0,0,0,0],"id":45,"left_children":[1,-1,3,5,7,-1,9,-1,-1,-1,-1],"loss_changes":[2.4725742E0,0E0,8.3330417E-1,2.2605681E-1,1.1266699E0,0E0,2.6581532E-1,0E0,0E0,0E0,0E0],"parents":[2147483647,0,0,2,2,3,3,4,4,6,6],"right_children":[2,-1,4,6,8,-1,10,-1,-1,-1,-1],"split_conditions":[7.8E1,7.033E-2,1.34E2,6.591716E0,6.596641E0,-4.381547E-2,1.23E3,6.903263E-2,-3.241436E-2,2.1782871E-2,-2.9062694E-2],"split_indices":[1,0,1,2,2,0,0,0,0,0,0],"split_type":[0,0,0,0,0,0,0,0,0,0,0],"sum_hessian":[1.9993414E1,1.7976894E0,1.8195724E1,1.56846695E1,2.511055E0,1.3524704E1,2.159966E0,1.036096E0,1.474959E0,1.00633E0,1.153636E0],"tree_param":{"num_deleted":"0","num_feature":"5","num_nodes":"11","size_leaf_vector":"1"}},{"base_weights":[-1.5496671E-1,9.7089046E-1,-3.9067262E-1,-3.0546222E-2,1.7598242E-1,-2.3125674E-1,-4.846203E-2,-4.645326E-2,6.429952E-2],"categories":[],"categories_nodes":[],"categories_segments":[],"categories_sizes":[],"default_left":[0,0,0,0,0,0,0,0,0],"id":46,"left_children":[1,3,5,-1,-1,7,-1,-1,-1],"loss_changes":[5.461157E0,4.164687E0,1.3576269E-1,0E0,0E0,1.9401692E0,0E0,0E0,0E0],"parents":[2147483647,0,0,1,1,2,2,5,5],"right_children":[2,4,6,-1,-1,8,-1,-1,-1],"split_conditions":[3.2490337E1,4.7102757E0,1.4325377E2,-3.0546222E-2,1.7598242E-1,1.3172572E2,-4.846203E-2,-4.645326E-2,6.429952E-2],"split_indices":[3,2,3,0,0,3,0,0,0],"split_type":[0,0,0,0,0,0,0,0,0],"sum_hessian":[1.8149994E1,2.6020656E0,1.5547929E1,1.228076E0,1.3739895E0,7.04875E0,8.499179E0,5.9340296E0,1.1147205E0],"tree_param":{"num_deleted":"0","num_feature":"5","num_nodes":"9","size_leaf_vector":"1"}},{"base_weights":[1.4637753E-1,4.5639452E-1,-4.733599E-2,-2.3575434E-3,1.6133374E-1,7.015689E-1,-4.715528E-2,-3.6299665E-2,1.5194108E-1],"categories":[],"categories_nodes":[],"categories_segments":[],"categories_sizes":[],"default_left":[0,0,0,0,0,0,0,0,0],"id":47,"left_children":[1,3,-1,5,-1,7,-1,-1,-1],"loss_changes":[4.3872643E0,7.9547043E0,0E0,4.2035313E0,0E0,4.9845686E0,0E0,0E0,0E0],"parents":[2147483647,0,0,1,1,3,3,5,5],"right_children":[2,4,-1,6,-1,8,-1,-1,-1],"split_conditions":[1.6348343E2,1.5244263E2,-4.733599E-2,9.6E1,1.6133374E-1,8.9E1,-4.715528E-2,-3.6299665E-2,1.5194108E-1],"split_indices":[3,3,0,1,0,1,0,0,0],"split_type":[0,0,0,0,0,0,0,0,0],"sum_hessian":[2.0710531E1,1.3980503E1,6.730029E0,1.0725557E1,3.2549455E0,4.091653E0,6.6339045E0,2.019313E0,2.0723398E0],"tree_param":{"num_deleted":"0","num_feature":"5","num_nodes":"9","size_leaf_vector":"1"}},{"base_weights":[2.0910564E-1,4.8175743E-1,-4.6686254E-2,-4.8182465E-2,2.1150222E-1,6.668701E-1,-4.835281E-2,-3.9203096E-2,1.7903283E-1],"categories":[],"categories_nodes":[],"categories_segments":[],"categories_sizes":[],"default_left":[0,0,0,0,0,0,0,0,0],"id":48,"left_children":[1,3,-1,5,-1,7,-1,-1,-1],"loss_changes":[4.1861796E0,1.3784001E1,0E0,4.342169E0,0E0,7.0151677E0,0E0,0E0,0E0],"parents":[2147483647,0,0,1,1,3,3,5,5],"right_children":[2,4,-1,6,-1,8,-1,-1,-1],"split_conditions":[1.7527809E2,1.6348343E2,-4.6686254E-2,6.432423E0,2.1150222E-1,6.217656E0,-4.835281E-2,-3.9203096E-2,1.7903283E-1],"split_indices":[3,3,0,2,0,2,0,0,0],"split_type":[0,0,0,0,0,0,0,0,0],"sum_hessian":[2.0493114E1,1.4807725E1,5.685389E0,1.19128895E1,2.894836E0,4.3069434E0,7.605946E0,2.5523286E0,1.7546147E0],"tree_param":{"num_deleted":"0","num_feature":"5","num_nodes":"9","size_leaf_vector":"1"}},{"base_weights":[-9.535037E-2,6.0809314E-1,-4.260683E-1,-4.1223794E-2,1.7071363E-1,-1.8247157E-1,-4.8734795E-2,-3.7072193E-2,1.8599637E-2],"categories":[],"categories_nodes":[],"categories_segments":[],"categories_sizes":[],"default_left":[0,0,0,0,0,0,0,0,0],"id":49,"left_children":[1,3,5,-1,-1,7,-1,-1,-1],"loss_changes":[4.6015086E0,7.8595123E0,1.0937834E-1,0E0,0E0,3.650468E-1,0E0,0E0,0E0],"parents":[2147483647,0,0,1,1,2,2,5,5],"right_children":[2,4,6,-1,-1,8,-1,-1,-1],"split_conditions":[6.3794785E1,1.08E2,2.4221043E1,-4.1223794E-2,1.7071363E-1,1E2,-4.8734795E-2,-3.7072193E-2,1.8599637E-2],"split_indices":[3,1,4,0,0,1,0,0,0],"split_type":[0,0,0,0,0,0,0,0,0],"sum_hessian":[1.7665724E1,5.381168E0,1.2284555E1,3.1145709E0,2.266597E0,3.2686832E0,9.015872E0,2.1593525E0,1.1093307E0],"tree_param":{"num_deleted":"0","num_feature":"5","num_nodes":"9","size_leaf_vector":"1"}},{"base_weights":[-8.04037E-2,-4.8401948E-2,2.2088213E-1,-1.8261784E-1,1.2510524E0,1.1668923E-1,-4.8202086E-2,1.7616324E-1,1.3950579E-2],"categories":[],"categories_nodes":[],"categories_segments":[],"categories_sizes":[],"default_left":[0,0,0,0,0,0,0,0,0],"id":50,"left_children":[1,-1,3,5,7,-1,-1,-1,-1],"loss_changes":[2.5717692E0,0E0,5.3382187E0,4.4839892E0,1.7900434E0,0E0,0E0,0E0,0E0],"parents":[2147483647,0,0,2,2,3,3,4,4],"right_children":[2,-1,4,6,8,-1,-1,-1,-1],"split_conditions":[1.23E2,-4.8401948E-2,1.856662E2,7.574745E1,1.8730455E2,1.1668923E-1,-4.8202086E-2,1.7616324E-1,1.3950579E-2],"split_indices":[1,0,3,3,3,0,0,0,0],"split_type":[0,0,0,0,0,0,0,0,0],"sum_hessian":[1.9269594E1,7.9768887E0,1.1292706E1,8.705602E0,2.5871038E0,1.0546305E0,7.650971E0,1.3720264E0,1.2150774E0],"tree_param":{"num_deleted":"0","num_feature":"5","num_nodes":"9","size_leaf_vector":"1"}},{"base_weights":[4.185421E-2,-4.8009824E-2,3.7649107E-1,2.203639E-2,1.5829244E-1,1.3006375E0,-4.8510287E-2,1.8122772E-2,1.7126444E-1],"categories":[],"categories_nodes":[],"categories_segments":[],"categories_sizes":[],"default_left":[0,0,0,0,0,0,0,0,0],"id":51,"left_children":[1,-1,3,5,-1,7,-1,-1,-1],"loss_changes":[3.8415816E0,0E0,5.6661043E0,7.970117E0,0E0,1.2973843E0,0E0,0E0,0E0],"parents":[2147483647,0,0,2,2,3,3,5,5],"right_children":[2,-1,4,6,-1,8,-1,-1,-1],"split_conditions":[6.5231657E0,-4.8009824E-2,1.9576494E2,9.59E2,1.5829244E-1,7.55635E1,-4.8510287E-2,1.8122772E-2,1.7126444E-1],"split_indices":[2,0,3,0,0,3,0,0,0],"split_type":[0,0,0,0,0,0,0,0,0],"sum_hessian":[1.9959202E1,7.6274867E0,1.2331715E1,1.0318397E1,2.0133185E0,2.4860084E0,7.832388E0,1.0562031E0,1.4298053E0],"tree_param":{"num_deleted":"0","num_feature":"5","num_nodes":"9","size_leaf_vector":"1"}},{"base_weights":[9.411489E-2,-1.9551502E-1,8.372903E-1,1.3667496E-1,-4.8215512E-2,-3.789225E-2,1.702845E-1,-4.6545006E-2,1.9513741E-1],"categories":[],"categories_nodes":[],"categories_segments":[],"categories_sizes":[],"default_left":[0,0,0,0,0,0,0,0,0],"id":52,"left_children":[1,3,5,7,-1,-1,-1,-1,-1],"loss_changes":[4.627675E0,1.5640559E0,6.966844E0,9.722873E0,0E0,0E0,0E0,0E0,0E0],"parents":[2147483647,0,0,1,1,2,2,3,3],"right_children":[2,4,6,8,-1,-1,-1,-1,-1],"split_conditions":[1.9864746E2,9.800288E1,1.05E2,8.539945E1,-4.8215512E-2,-3.789225E-2,1.702845E-1,-4.6545006E-2,1.9513741E-1],"split_indices":[3,3,1,3,0,0,0,0,0],"split_type":[0,0,0,0,0,0,0,0,0],"sum_hessian":[1.9738949E1,1.4733814E1,5.005135E0,7.066992E0,7.666823E0,2.3147879E0,2.690347E0,5.8646026E0,1.2023892E0],"tree_param":{"num_deleted":"0","num_feature":"5","num_nodes":"9","size_leaf_vector":"1"}},{"base_weights":[-4.817947E-2,-2.2356375E-1,5.864428E-1,5.5514578E-2,-4.8202895E-2,-3.4348726E-2,1.20904975E-1,-4.6465304E-2,1.22185566E-1],"categories":[],"categories_nodes":[],"categories_segments":[],"categories_sizes":[],"default_left":[0,0,0,0,0,0,0,0,0],"id":53,"left_children":[1,3,5,7,-1,-1,-1,-1,-1],"loss_changes":[2.4404614E0,1.251555E0,3.1761563E0,6.065053E0,0E0,0E0,0E0,0E0,0E0],"parents":[2147483647,0,0,1,1,2,2,3,3],"right_children":[2,4,6,8,-1,-1,-1,-1,-1],"split_conditions":[1.582E3,1.094E3,9.8E1,1.005E3,-4.8202895E-2,-3.4348726E-2,1.20904975E-1,-4.6465304E-2,1.22185566E-1],"split_indices":[0,0,1,0,0,0,0,0,0],"split_type":[0,0,0,0,0,0,0,0,0],"sum_hessian":[1.9748396E1,1.5979908E1,3.7684875E0,8.061115E0,7.9187922E0,1.6910424E0,2.077445E0,5.9908957E0,2.0702198E0],"tree_param":{"num_deleted":"0","num_feature":"5","num_nodes":"9","size_leaf_vector":"1"}},{"base_weights":[-1.22800566E-1,-3.9403996E-1,1.077814E0,-2.545936E-1,-4.840865E-2,1.1853456E-2,1.4931785E-1,-4.7206353E-2,7.028694E-2],"categories":[],"categories_nodes":[],"categories_segments":[],"categories_sizes":[],"default_left":[0,0,0,0,0,0,0,0,0],"id":54,"left_children":[1,3,5,7,-1,-1,-1,-1,-1],"loss_changes":[6.880673E0,8.900666E-2,1.385365E0,2.1520221E0,0E0,0E0,0E0,0E0,0E0],"parents":[2147483647,0,0,1,1,2,2,3,3],"right_children":[2,4,6,8,-1,-1,-1,-1,-1],"split_conditions":[2.2757143E2,1.11512115E2,5.724123E0,9.813031E1,-4.840865E-2,1.1853456E-2,1.4931785E-1,-4.7206353E-2,7.028694E-2],"split_indices":[3,3,2,3,0,0,0,0,0],"split_type":[0,0,0,0,0,0,0,0,0],"sum_hessian":[1.8824635E1,1.5903552E1,2.9210835E0,7.741851E0,8.161701E0,1.2710296E0,1.6500537E0,6.7220306E0,1.0198202E0],"tree_param":{"num_deleted":"0","num_feature":"5","num_nodes":"9","size_leaf_vector":"1"}},{"base_weights":[1.7073879E-1,9.142076E-1,-7.557697E-2,1.2656115E-1,4.842762E-1,2.0214397E-1,-4.6783943E-2,-3.8472164E-2,1.1918254E-1,-4.465566E-2,7.7412826E-1,1.9348053E-2,8.5079476E-2],"categories":[],"categories_nodes":[],"categories_segments":[],"categories_sizes":[],"default_left":[0,0,0,0,0,0,0,0,0,0,0,0,0],"id":55,"left_children":[1,3,5,-1,7,9,-1,-1,-1,-1,11,-1,-1],"loss_changes":[4.0868335E0,2.2349834E-1,1.9904811E0,0E0,2.9853997E0,4.385499E0,0E0,0E0,0E0,0E0,1.0924029E-1,0E0,0E0],"parents":[2147483647,0,0,1,1,2,2,4,4,5,5,10,10],"right_children":[2,4,6,-1,8,10,-1,-1,-1,-1,12,-1,-1],"split_conditions":[5.45388E0,6.2E1,1.235E3,1.2656115E-1,6.99E2,1.053E3,-4.6783943E-2,-3.8472164E-2,1.1918254E-1,-4.465566E-2,6.5519385E0,1.9348053E-2,8.5079476E-2],"split_indices":[2,1,0,0,0,0,0,0,0,0,2,0,0],"split_type":[0,0,0,0,0,0,0,0,0,0,0,0,0],"sum_hessian":[2.0939512E1,4.536179E0,1.6403332E1,1.4264885E0,3.1096907E0,9.887603E0,6.515729E0,1.6003878E0,1.5093029E0,4.735851E0,5.151752E0,1.0118659E0,4.1398864E0],"tree_param":{"num_deleted":"0","num_feature":"5","num_nodes":"13","size_leaf_vector":"1"}},{"base_weights":[-7.676307E-2,1.1869746E-1,-2.9358956E-1,-7.569393E-2,-4.8425175E-2,-4.8015434E-2,1.6770035E-1],"categories":[],"categories_nodes":[],"categories_segments":[],"categories_sizes":[],"default_left":[0,0,0,0,0,0,0],"id":56,"left_children":[1,-1,3,5,-1,-1,-1],"loss_changes":[5.8837347E0,0E0,7.1297777E-1,7.6148367E0,0E0,0E0,0E0],"parents":[2147483647,0,0,2,2,3,3],"right_children":[2,-1,4,6,-1,-1,-1],"split_conditions":[6.99E2,1.1869746E-1,1.426369E2,1.3076294E2,-4.8425175E-2,-4.8015434E-2,1.6770035E-1],"split_indices":[0,0,3,3,0,0,0],"split_type":[0,0,0,0,0,0,0],"sum_hessian":[1.9200777E1,2.1566708E0,1.7044107E1,8.605936E0,8.43817E0,7.5822663E0,1.0236698E0],"tree_param":{"num_deleted":"0","num_feature":"5","num_nodes":"7","size_leaf_vector":"1"}},{"base_weights":[-9.9562556E-2,6.4303696E-1,-2.642583E-1,-3.314013E-2,1.4178297E-1,-4.7693208E-2,-3.9426472E-2,1.6467957E-1,-4.7139637E-2],"categories":[],"categories_nodes":[],"categories_segments":[],"categories_sizes":[],"default_left":[0,0,0,0,0,0,0,0,0],"id":57,"left_children":[1,3,5,-1,-1,-1,7,-1,-1],"loss_changes":[2.4845715E0,3.2834735E0,7.557554E-1,0E0,0E0,0E0,7.305967E0,0E0,0E0],"parents":[2147483647,0,0,1,1,2,2,6,6],"right_children":[2,4,6,-1,-1,-1,8,-1,-1],"split_conditions":[3.2490337E1,6.99E2,1.3333511E2,-3.314013E-2,1.4178297E-1,-4.7693208E-2,1.5244263E2,1.6467957E-1,-4.7139637E-2],"split_indices":[3,0,3,0,0,0,3,0,0],"split_type":[0,0,0,0,0,0,0,0,0],"sum_hessian":[1.792549E1,2.7266874E0,1.5198803E1,1.4612186E0,1.2654688E0,7.234362E0,7.964441E0,1.0506945E0,6.9137464E0],"tree_param":{"num_deleted":"0","num_feature":"5","num_nodes":"9","size_leaf_vector":"1"}},{"base_weights":[1.379154E-1,4.081665E-1,-4.655693E-2,-7.71827E-2,1.4237152E-1,5.789868E-1,-4.7049936E-2,-3.479989E-2,1.2720436E-1],"categories":[],"categories_nodes":[],"categories_segments":[],"categories_sizes":[],"default_left":[0,0,0,0,0,0,0,0,0],"id":58,"left_children":[1,3,-1,5,-1,7,-1,-1,-1],"loss_changes":[3.7107863E0,7.7217827E0,0E0,3.2140055E0,0E0,3.4749908E0,0E0,0E0,0E0],"parents":[2147483647,0,0,1,1,3,3,5,5],"right_children":[2,4,-1,6,-1,8,-1,-1,-1],"split_conditions":[1.6348343E2,1.5244263E2,-4.655693E-2,9.6E1,1.4237152E-1,8.6E1,-4.7049936E-2,-3.479989E-2,1.2720436E-1],"split_indices":[3,3,0,1,0,1,0,0,0],"split_type":[0,0,0,0,0,0,0,0,0],"sum_hessian":[2.0587496E1,1.4443218E1,6.1442776E0,1.0397881E1,4.0453377E0,3.7199059E0,6.6779747E0,1.8043749E0,1.9155309E0],"tree_param":{"num_deleted":"0","num_feature":"5","num_nodes":"9","size_leaf_vector":"1"}},{"base_weights":[1.2024092E-1,-1.7510563E-1,6.795595E-1,4.7427553E-1,-4.900015E-2,-4.034293E-2,1.4028463E0,-3.9477665E-2,1.4863251E-1,1.7093895E-1,1.7353486E-2],"categories":[],"categories_nodes":[],"categories_segments":[],"categories_sizes":[],"default_left":[0,0,0,0,0,0,0,0,0,0,0],"id":59,"left_children":[1,3,5,7,-1,-1,9,-1,-1,-1,-1],"loss_changes":[3.6205406E0,3.231591E0,6.4641533E0,5.246306E0,0E0,0E0,1.4888191E0,0E0,0E0,0E0,0E0],"parents":[2147483647,0,0,1,1,2,2,3,3,6,6],"right_children":[2,4,6,8,-1,-1,10,-1,-1,-1,-1],"split_conditions":[1.29E2,5.4537334E1,1.5388905E2,9.6E1,-4.900015E-2,-4.034293E-2,1.6609854E2,-3.9477665E-2,1.4863251E-1,1.7093895E-1,1.7353486E-2],"split_indices":[1,3,3,1,0,0,3,0,0,0,0],"split_type":[0,0,0,0,0,0,0,0,0,0,0],"sum_hessian":[2.019672E1,1.366689E1,6.5298305E0,4.2977977E0,9.369092E0,2.7918208E0,3.7380095E0,2.640398E0,1.6573998E0,2.6793551E0,1.0586544E0],"tree_param":{"num_deleted":"0","num_feature":"5","num_nodes":"11","size_leaf_vector":"1"}},{"base_weights":[-1.1756991E-1,4.4045678E-1,-4.229698E-1,-4.3176774E-2,1.495759E-1,-1.4359616E-1,-4.867833E-2,-3.514461E-2,2.2338066E-2],"categories":[],"categories_nodes":[],"categories_segments":[],"categories_sizes":[],"default_left":[0,0,0,0,0,0,0,0,0],"id":60,"left_children":[1,3,5,-1,-1,7,-1,-1,-1],"loss_changes":[3.496699E0,7.420923E0,1.6300654E-1,0E0,0E0,3.7198877E-1,0E0,0E0,0E0],"parents":[2147483647,0,0,1,1,2,2,5,5],"right_children":[2,4,6,-1,-1,8,-1,-1,-1],"split_conditions":[6.3794785E1,1.11E2,2.4221043E1,-4.3176774E-2,1.495759E-1,6.2571497E0,-4.867833E-2,-3.514461E-2,2.2338066E-2],"split_indices":[3,1,4,0,0,2,0,0,0],"split_type":[0,0,0,0,0,0,0,0,0],"sum_hessian":[1.8424799E1,6.3605576E0,1.2064241E1,3.8058333E0,2.5547245E0,2.8476336E0,9.216608E0,1.844984E0,1.0026495E0],"tree_param":{"num_deleted":"0","num_feature":"5","num_nodes":"9","size_leaf_vector":"1"}},{"base_weights":[-4.073405E-2,-4.1716944E-2,4.5400468E-1,-5.222101E-2,1.4218666E-1,1.1978716E-1,-4.5487437E-2],"categories":[],"categories_nodes":[],"categories_segments":[],"categories_sizes":[],"default_left":[0,0,0,0,0,0,0],"id":61,"left_children":[1,-1,3,5,-1,-1,-1],"loss_changes":[4.020851E0,0E0,4.6643944E0,4.1266265E0,0E0,0E0,0E0],"parents":[2147483647,0,0,2,2,3,3],"right_children":[2,-1,4,6,-1,-1,-1],"split_conditions":[6.5624137E0,-4.1716944E-2,1.856662E2,7.574745E1,1.4218666E-1,1.1978716E-1,-4.5487437E-2],"split_indices":[2,0,3,3,0,0,0],"split_type":[0,0,0,0,0,0,0],"sum_hessian":[1.9572985E1,1.12045145E1,8.36847E0,6.115759E0,2.2527115E0,1.0088136E0,5.106945E0],"tree_param":{"num_deleted":"0","num_feature":"5","num_nodes":"7","size_leaf_vector":"1"}},{"base_weights":[-7.464079E-2,-3.0156845E-1,4.4192803E-1,-4.7991175E-2,-2.3474902E-2,1.03046976E-1,-1.620057E-1,5.8239186E-1,-4.243904E-2,2.2110326E-2,-3.6181815E-2,6.967567E-2,1.875944E-2],"categories":[],"categories_nodes":[],"categories_segments":[],"categories_sizes":[],"default_left":[0,0,0,0,0,0,0,0,0,0,0,0,0],"id":62,"left_children":[1,3,5,-1,7,-1,9,11,-1,-1,-1,-1,-1],"loss_changes":[2.4494083E0,6.990545E-1,2.4546123E0,0E0,1.8618469E0,0E0,3.8931346E-1,7.845283E-3,0E0,0E0,0E0,0E0,0E0],"parents":[2147483647,0,0,1,1,2,2,4,4,6,6,7,7],"right_children":[2,4,6,-1,8,-1,10,12,-1,-1,-1,-1,-1],"split_conditions":[2.5057877E1,1.24E2,1.27E2,-4.7991175E-2,1.27E2,1.03046976E-1,1.201844E2,9.813031E1,-4.243904E-2,2.2110326E-2,-3.6181815E-2,6.967567E-2,1.875944E-2],"split_indices":[4,1,1,0,1,0,3,3,0,0,0,0,0],"split_type":[0,0,0,0,0,0,0,0,0,0,0,0,0],"sum_hessian":[1.8758255E1,1.3322095E1,5.436161E0,7.6746E0,5.6474943E0,2.395475E0,3.0406861E0,2.0686615E0,3.578833E0,1.0057551E0,2.0349312E0,1.0109608E0,1.0577006E0],"tree_param":{"num_deleted":"0","num_feature":"5","num_nodes":"13","size_leaf_vector":"1"}},{"base_weights":[5.3244866E-2,-4.7148567E-2,3.5632724E-1,-3.8585708E-2,1.4182045E-1,7.426865E-1,-4.7190446E-2,-3.4727555E-2,1.6539915E-1],"categories":[],"categories_nodes":[],"categories_segments":[],"categories_sizes":[],"default_left":[0,0,0,0,0,0,0,0,0],"id":63,"left_children":[1,-1,3,5,-1,7,-1,-1,-1],"loss_changes":[3.3957477E0,0E0,5.688447E0,3.99523E0,0E0,4.7754555E0,0E0,0E0,0E0],"parents":[2147483647,0,0,2,2,3,3,5,5],"right_children":[2,-1,4,6,-1,8,-1,-1,-1],"split_conditions":[2.4291014E1,-4.7148567E-2,2.0636568E2,8.846385E1,1.4182045E-1,8.539945E1,-4.7190446E-2,-3.4727555E-2,1.6539915E-1],"split_indices":[4,0,3,3,0,3,0,0,0],"split_type":[0,0,0,0,0,0,0,0,0],"sum_hessian":[1.929561E1,6.8611593E0,1.2434451E1,9.766095E0,2.6683555E0,3.229453E0,6.5366426E0,1.7524129E0,1.47704E0],"tree_param":{"num_deleted":"0","num_feature":"5","num_nodes":"9","size_leaf_vector":"1"}},{"base_weights":[-8.5326634E-2,-2.2627765E-1,5.1821095E-1,8.0009945E-2,-4.8386432E-2,-3.410021E-2,1.23829596E-1,-4.673047E-2,1.4916089E-1],"categories":[],"categories_nodes":[],"categories_segments":[],"categories_sizes":[],"default_left":[0,0,0,0,0,0,0,0,0],"id":64,"left_children":[1,3,5,7,-1,-1,-1,-1,-1],"loss_changes":[1.8314121E0,1.3824022E0,2.9706335E0,7.370838E0,0E0,0E0,0E0,0E0,0E0],"parents":[2147483647,0,0,1,1,2,2,3,3],"right_children":[2,4,6,8,-1,-1,-1,-1,-1],"split_conditions":[1.615E3,1.0875E2,1E2,9.800288E1,-4.8386432E-2,-3.410021E-2,1.23829596E-1,-4.673047E-2,1.4916089E-1],"split_indices":[0,3,1,3,0,0,0,0,0],"split_type":[0,0,0,0,0,0,0,0,0],"sum_hessian":[1.9150087E1,1.6031216E1,3.1188715E0,7.638234E0,8.392981E0,1.66209E0,1.4567814E0,5.9861846E0,1.65205E0],"tree_param":{"num_deleted":"0","num_feature":"5","num_nodes":"9","size_leaf_vector":"1"}},{"base_weights":[-1.4392902E-1,-2.6531833E-1,5.0579196E-1,-3.1191504E-1,2.175815E-2,6.330124E-2,1.4671876E-2,-4.7512643E-2,-1.0977109E-1,6.808315E-2,-3.270453E-2],"categories":[],"categories_nodes":[],"categories_segments":[],"categories_sizes":[],"default_left":[0,0,0,0,0,0,0,0,0,0,0],"id":65,"left_children":[1,3,5,7,-1,-1,-1,-1,9,-1,-1],"loss_changes":[1.5819597E0,4.306532E-1,5.484909E-2,4.4651628E-1,0E0,0E0,0E0,0E0,1.6059079E0,0E0,0E0],"parents":[2147483647,0,0,1,1,2,2,3,3,8,8],"right_children":[2,4,6,8,-1,-1,-1,-1,10,-1,-1],"split_conditions":[1.658E3,1.35E2,1.686E3,1.111E3,2.175815E-2,6.330124E-2,1.4671876E-2,-4.7512643E-2,1.198E3,6.808315E-2,-3.270453E-2],"split_indices":[0,1,0,0,0,0,0,0,0,0,0],"split_type":[0,0,0,0,0,0,0,0,0,0,0],"sum_hessian":[1.735652E1,1.5122736E1,2.2337835E0,1.4114826E1,1.0079104E0,1.0860775E0,1.147706E0,7.0622873E0,7.0525384E0,1.0604248E0,5.992114E0],"tree_param":{"num_deleted":"0","num_feature":"5","num_nodes":"11","size_leaf_vector":"1"}},{"base_weights":[1.5568939E-1,1.10412754E-1,-1.4347458E-1,1.3557436E-1,-4.741217E-2,-4.7053467E-2,1.2846261E-1],"categories":[],"categories_nodes":[],"categories_segments":[],"categories_sizes":[],"default_left":[0,0,0,0,0,0,0],"id":66,"left_children":[1,-1,3,5,-1,-1,-1],"loss_changes":[6.4742727E0,0E0,1.7072556E0,7.8715987E0,0E0,0E0,0E0],"parents":[2147483647,0,0,2,2,3,3],"right_children":[2,-1,4,6,-1,-1,-1],"split_conditions":[5.45388E0,1.10412754E-1,1.3076294E2,1.1970848E2,-4.741217E-2,-4.7053467E-2,1.2846261E-1],"split_indices":[2,0,3,3,0,0,0],"split_type":[0,0,0,0,0,0,0],"sum_hessian":[2.1259432E1,4.4526153E0,1.6806816E1,9.434534E0,7.3722825E0,6.563094E0,2.8714402E0],"tree_param":{"num_deleted":"0","num_feature":"5","num_nodes":"7","size_leaf_vector":"1"}},{"base_weights":[-1.181631E-1,1.062706E0,-3.410222E-1,-3.012207E-2,1.7985868E-1,-4.949494E-2,9.294003E-3,6.0162194E-2,-4.1470673E-2],"categories":[],"categories_nodes":[],"categories_segments":[],"categories_sizes":[],"default_left":[0,0,0,0,0,0,0,0,0],"id":67,"left_children":[1,3,5,-1,-1,-1,7,-1,-1],"loss_changes":[5.558844E0,3.9320474E0,9.411342E-1,0E0,0E0,0E0,1.8275481E0,0E0,0E0],"parents":[2147483647,0,0,1,1,2,2,6,6],"right_children":[2,4,6,-1,-1,-1,8,-1,-1],"split_conditions":[7.8E1,6.2E1,6.5834975E0,-3.012207E-2,1.7985868E-1,-4.949494E-2,6.5941415E0,6.0162194E-2,-4.1470673E-2],"split_indices":[1,1,2,0,0,0,2,0,0],"split_type":[0,0,0,0,0,0,0,0,0],"sum_hessian":[1.8745749E1,2.3778205E0,1.636793E1,1.040311E0,1.3375096E0,1.1084562E1,5.2833667E0,2.0293927E0,3.2539737E0],"tree_param":{"num_deleted":"0","num_feature":"5","num_nodes":"9","size_leaf_vector":"1"}},{"base_weights":[-1.09642774E-1,5.1089436E-1,-2.6293352E-1,-3.5306383E-2,1.2853776E-1,-4.0644836E-1,8.5739665E-2,-4.6917636E-2,-2.1549335E-1,4.9283445E-1,-3.72982E-2,-3.7504796E-2,8.913341E-3,1.1498566E-2,6.7862995E-2],"categories":[],"categories_nodes":[],"categories_segments":[],"categories_sizes":[],"default_left":[0,0,0,0,0,0,0,0,0,0,0,0,0,0,0],"id":68,"left_children":[1,3,5,-1,-1,7,9,-1,11,13,-1,-1,-1,-1,-1],"loss_changes":[1.9648485E0,3.2319179E0,8.400843E-1,0E0,0E0,3.75309E-2,1.2142605E0,0E0,2.6242203E-1,1.5744656E-1,0E0,0E0,0E0,0E0,0E0],"parents":[2147483647,0,0,1,1,2,2,5,5,6,6,8,8,9,9],"right_children":[2,4,6,-1,-1,8,10,-1,12,14,-1,-1,-1,-1,-1],"split_conditions":[3.2490337E1,6.99E2,1.31E2,-3.5306383E-2,1.2853776E-1,1.25E2,1.33E2,-4.6917636E-2,1.3172572E2,1.32E2,-3.72982E-2,-3.7504796E-2,8.913341E-3,1.1498566E-2,6.7862995E-2],"split_indices":[3,0,1,0,0,1,1,0,3,1,0,0,0,0,0],"split_type":[0,0,0,0,0,0,0,0,0,0,0,0,0,0,0],"sum_hessian":[1.8243767E1,3.15186E0,1.5091907E1,1.7470764E0,1.4047837E0,1.0573943E1,4.517964E0,6.862604E0,3.711339E0,2.3542807E0,2.163683E0,2.2839177E0,1.4274216E0,1.309684E0,1.0445967E0],"tree_param":{"num_deleted":"0","num_feature":"5","num_nodes":"15","size_leaf_vector":"1"}},{"base_weights":[2.0546141E-1,4.6231663E-1,-4.6118673E-2,3.205419E-2,1.3047704E-1,6.4698505E-1,-4.6619546E-2,-3.633892E-2,1.272835E-1],"categories":[],"categories_nodes":[],"categories_segments":[],"categories_sizes":[],"default_left":[0,0,0,0,0,0,0,0,0],"id":69,"left_children":[1,3,-1,5,-1,7,-1,-1,-1],"loss_changes":[4.1527996E0,6.1592855E0,0E0,4.085313E0,0E0,4.2225914E0,0E0,0E0,0E0],"parents":[2147483647,0,0,1,1,3,3,5,5],"right_children":[2,4,-1,6,-1,8,-1,-1,-1],"split_conditions":[1.6348343E2,1.5244263E2,-4.6118673E-2,9.6E1,1.3047704E-1,8.9E1,-4.6619546E-2,-3.633892E-2,1.272835E-1],"split_indices":[3,3,0,1,0,1,0,0,0],"split_type":[0,0,0,0,0,0,0,0,0],"sum_hessian":[2.200729E1,1.610763E1,5.8996596E0,1.1349302E1,4.758327E0,4.9462333E0,6.403069E0,2.052323E0,2.8939102E0],"tree_param":{"num_deleted":"0","num_feature":"5","num_nodes":"9","size_leaf_vector":"1"}},{"base_weights":[6.926702E-2,-1.8025276E-1,6.990973E-1,1.2143082E-1,-4.7202677E-2,-3.1487297E-2,1.084701E0,-4.2301413E-2,6.614132E-1,1.3342583E-1,1.6408678E-2,1.0571579E-1,2.0836663E-2],"categories":[],"categories_nodes":[],"categories_segments":[],"categories_sizes":[],"default_left":[0,0,0,0,0,0,0,0,0,0,0,0,0],"id":70,"left_children":[1,3,5,7,-1,-1,9,-1,11,-1,-1,-1,-1],"loss_changes":[3.1992643E0,1.360203E0,2.5912874E0,2.6530526E0,0E0,0E0,7.904854E-1,0E0,5.7630956E-1,0E0,0E0,0E0,0E0],"parents":[2147483647,0,0,1,1,2,2,3,3,6,6,8,8],"right_children":[2,4,6,8,-1,-1,10,-1,12,-1,-1,-1,-1],"split_conditions":[1.33E2,2.436795E1,1.5372145E2,6.3121834E0,-4.7202677E-2,-3.1487297E-2,1.6461313E2,-4.2301413E-2,1.08E2,1.3342583E-1,1.6408678E-2,1.0571579E-1,2.0836663E-2],"split_indices":[1,4,3,2,0,0,3,0,1,0,0,0,0],"split_type":[0,0,0,0,0,0,0,0,0,0,0,0,0],"sum_hessian":[1.8555523E1,1.3801565E1,4.7539573E0,7.072588E0,6.728977E0,1.3603243E0,3.393633E0,3.6296031E0,3.4429846E0,2.3163977E0,1.0772352E0,1.1259787E0,2.3170059E0],"tree_param":{"num_deleted":"0","num_feature":"5","num_nodes":"13","size_leaf_vector":"1"}},{"base_weights":[-1.15839705E-1,5.451883E-1,-4.2585042E-1,-3.9660815E-2,1.3310488E-1,-1.5413623E-1,-4.86799E-2,-3.5747163E-2,2.2126252E-2],"categories":[],"categories_nodes":[],"categories_segments":[],"categories_sizes":[],"default_left":[0,0,0,0,0,0,0,0,0],"id":71,"left_children":[1,3,5,-1,-1,7,-1,-1,-1],"loss_changes":[4.156647E0,5.3775845E0,1.5016079E-1,0E0,0E0,3.8096625E-1,0E0,0E0,0E0],"parents":[2147483647,0,0,1,1,2,2,5,5],"right_children":[2,4,6,-1,-1,8,-1,-1,-1],"split_conditions":[6.3794785E1,1.08E2,2.4221043E1,-3.9660815E-2,1.3310488E-1,1.04E2,-4.86799E-2,-3.5747163E-2,2.2126252E-2],"split_indices":[3,1,4,0,0,1,0,0,0],"split_type":[0,0,0,0,0,0,0,0,0],"sum_hessian":[1.8150732E1,5.5525537E0,1.259818E1,2.7510002E0,2.8015532E0,2.954721E0,9.643458E0,1.9475708E0,1.0071503E0],"tree_param":{"num_deleted":"0","num_feature":"5","num_nodes":"9","size_leaf_vector":"1"}},{"base_weights":[-2.0686133E-2,-4.6201877E-2,2.0949252E-1,1.1906108E0,-7.7517785E-2,2.1664236E-2,1.5446617E-1,-4.757047E-2,6.877492E-1,-3.42359E-2,1.4059429E-1],"categories":[],"categories_nodes":[],"categories_segments":[],"categories_sizes":[],"default_left":[0,0,0,0,0,0,0,0,0,0,0],"id":72,"left_children":[1,-1,3,5,7,-1,-1,-1,9,-1,-1],"loss_changes":[2.0955179E0,0E0,3.9273179E0,7.493439E-1,3.8240144E0,0E0,0E0,0E0,3.68945E0,0E0,0E0],"parents":[2147483647,0,0,2,2,3,3,4,4,8,8],"right_children":[2,-1,4,6,8,-1,-1,-1,10,-1,-1],"split_conditions":[6.4888167E0,-4.6201877E-2,7.535573E1,1.22E2,1.6609854E2,2.1664236E-2,1.5446617E-1,-4.757047E-2,1.27E2,-3.42359E-2,1.4059429E-1],"split_indices":[2,0,3,1,3,0,0,0,1,0,0],"split_type":[0,0,0,0,0,0,0,0,0,0,0],"sum_hessian":[1.8675362E1,6.0562344E0,1.2619127E1,2.143489E0,1.0475638E1,1.0011885E0,1.1423004E0,7.13928E0,3.336359E0,1.5855308E0,1.7508283E0],"tree_param":{"num_deleted":"0","num_feature":"5","num_nodes":"11","size_leaf_vector":"1"}},{"base_weights":[-9.490791E-2,-4.7001828E-2,1.2620306E-1,7.395596E-1,-4.696439E-2,-3.242526E-2,1.0131235E0,1.196022E-1,1.45548675E-2],"categories":[],"categories_nodes":[],"categories_segments":[],"categories_sizes":[],"default_left":[0,0,0,0,0,0,0,0,0],"id":73,"left_children":[1,-1,3,5,-1,-1,7,-1,-1],"loss_changes":[1.753315E0,0E0,5.331594E0,2.397283E0,0E0,0E0,7.616534E-1,0E0,0E0],"parents":[2147483647,0,0,2,2,3,3,6,6],"right_children":[2,-1,4,6,-1,-1,8,-1,-1],"split_conditions":[6.5231657E0,-4.7001828E-2,1.27E2,6.665723E1,-4.696439E-2,-3.242526E-2,1.26E2,1.196022E-1,1.45548675E-2],"split_indices":[2,0,1,3,0,0,1,0,0],"split_type":[0,0,0,0,0,0,0,0,0],"sum_hessian":[1.9424118E1,6.786034E0,1.2638083E1,6.108691E0,6.5293922E0,1.2116476E0,4.8970437E0,3.7317502E0,1.1652933E0],"tree_param":{"num_deleted":"0","num_feature":"5","num_nodes":"9","size_leaf_vector":"1"}},{"base_weights":[4.0134087E-2,-2.1398571E-1,5.778008E-1,-4.7631152E-2,1.5967734E-1,-3.8215794E-2,1.2765472E-1,1.2705827E-1,-4.2985763E-2],"categories":[],"categories_nodes":[],"categories_segments":[],"categories_sizes":[],"default_left":[0,0,0,0,0,0,0,0,0],"id":74,"left_children":[1,3,5,-1,7,-1,-1,-1,-1],"loss_changes":[2.6978922E0,1.4016674E0,4.725158E0,0E0,4.689855E0,0E0,0E0,0E0,0E0],"parents":[2147483647,0,0,1,1,2,2,4,4],"right_children":[2,4,6,-1,8,-1,-1,-1,-1],"split_conditions":[2.0636568E2,6.573207E0,6.266128E0,-4.7631152E-2,1.106E3,-3.8215794E-2,1.2765472E-1,1.2705827E-1,-4.2985763E-2],"split_indices":[3,2,2,0,0,0,0,0,0],"split_type":[0,0,0,0,0,0,0,0,0],"sum_hessian":[1.7840797E1,1.2523684E1,5.3171134E0,7.1966505E0,5.327033E0,2.4307528E0,2.8863606E0,1.4463458E0,3.8806875E0],"tree_param":{"num_deleted":"0","num_feature":"5","num_nodes":"9","size_leaf_vector":"1"}},{"base_weights":[-3.647535E-2,-2.6081082E-1,6.2743264E-1,-4.8446044E-2,-4.694961E-2,-3.3200916E-2,1.1179149E-1,-4.5730256E-2,8.146246E-2],"categories":[],"categories_nodes":[],"categories_segments":[],"categories_sizes":[],"default_left":[0,0,0,0,0,0,0,0,0],"id":75,"left_children":[1,3,5,7,-1,-1,-1,-1,-1],"loss_changes":[3.1323469E0,6.6881406E-1,2.8783572E0,3.4951727E0,0E0,0E0,0E0,0E0,0E0],"parents":[2147483647,0,0,1,1,2,2,3,3],"right_children":[2,4,6,8,-1,-1,-1,-1,-1],"split_conditions":[1.582E3,1.094E3,9.8E1,1.005E3,-4.694961E-2,-3.3200916E-2,1.1179149E-1,-4.5730256E-2,8.146246E-2],"split_indices":[0,0,1,0,0,0,0,0,0],"split_type":[0,0,0,0,0,0,0,0,0],"sum_hessian":[1.8932478E1,1.4604691E1,4.327788E0,7.8492217E0,6.755469E0,1.5733076E0,2.7544804E0,5.6451354E0,2.2040863E0],"tree_param":{"num_deleted":"0","num_feature":"5","num_nodes":"9","size_leaf_vector":"1"}},{"base_weights":[-2.1768312E-3,-2.7298418E-1,9.1525275E-1,-5.1595796E-2,-4.7763906E-2,-3.1992998E-2,1.4612636E-1,-4.732315E-2,1.5840611E-1],"categories":[],"categories_nodes":[],"categories_segments":[],"categories_sizes":[],"default_left":[0,0,0,0,0,0,0,0,0],"id":76,"left_children":[1,3,5,7,-1,-1,-1,-1,-1],"loss_changes":[5.382397E0,7.3293567E-1,3.797779E0,7.0620284E0,0E0,0E0,0E0,0E0,0E0],"parents":[2147483647,0,0,1,1,2,2,3,3],"right_children":[2,4,6,8,-1,-1,-1,-1,-1],"split_conditions":[2.2757143E2,1.1970848E2,8.9E1,1.0875E2,-4.7763906E-2,-3.1992998E-2,1.4612636E-1,-4.732315E-2,1.5840611E-1],"split_indices":[3,3,1,3,0,0,0,0,0],"split_type":[0,0,0,0,0,0,0,0,0],"sum_hessian":[1.9658548E1,1.5720584E1,3.9379635E0,8.153034E0,7.56755E0,1.3340784E0,2.6038852E0,7.047122E0,1.1059121E0],"tree_param":{"num_deleted":"0","num_feature":"5","num_nodes":"9","size_leaf_vector":"1"}},{"base_weights":[1.9639033E-1,9.833686E-1,-1.1224279E-1,5.1866144E-1,1.19402625E-1,-4.6904683E-2,1.4287308E-1,1.11230135E-1,-3.6331438E-2,4.8509994E-1,-4.25376E-2,-3.279392E-2,7.485681E-2],"categories":[],"categories_nodes":[],"categories_segments":[],"categories_sizes":[],"default_left":[0,0,0,0,0,0,0,0,0,0,0,0,0],"id":77,"left_children":[1,3,5,7,-1,-1,9,-1,-1,11,-1,-1,-1],"loss_changes":[6.0198507E0,6.1677933E-2,1.7395207E0,2.4658182E0,0E0,0E0,2.438891E0,0E0,0E0,1.8803805E0,0E0,0E0,0E0],"parents":[2147483647,0,0,1,1,2,2,3,3,6,6,9,9],"right_children":[2,4,6,8,-1,-1,10,-1,-1,12,-1,-1,-1],"split_conditions":[5.45388E0,6.99E2,6.54451E0,6.4E1,1.19402625E-1,-4.6904683E-2,1.235E3,1.11230135E-1,-3.6331438E-2,1.053E3,-4.25376E-2,-3.279392E-2,7.485681E-2],"split_indices":[2,0,2,1,0,0,0,0,0,0,0,0,0],"split_type":[0,0,0,0,0,0,0,0,0,0,0,0,0],"sum_hessian":[2.3330088E1,5.9562197E0,1.7373867E1,2.9377346E0,3.0184853E0,6.893742E0,1.0480125E1,1.5997968E0,1.3379377E0,6.632213E0,3.8479118E0,1.5633017E0,5.0689116E0],"tree_param":{"num_deleted":"0","num_feature":"5","num_nodes":"13","size_leaf_vector":"1"}},{"base_weights":[-9.3476936E-2,2.6233107E-1,-4.806259E-2,-1.5055953E-1,1.591898E-1,8.795225E-2,-4.6883788E-2],"categories":[],"categories_nodes":[],"categories_segments":[],"categories_sizes":[],"default_left":[0,0,0,0,0,0,0],"id":78,"left_children":[1,3,-1,5,-1,-1,-1],"loss_changes":[2.6904926E0,5.9202185E0,0E0,3.300517E0,0E0,0E0,0E0],"parents":[2147483647,0,0,1,1,3,3],"right_children":[2,4,-1,6,-1,-1,-1],"split_conditions":[1.426369E2,1.21749176E2,-4.806259E-2,6.69E2,1.591898E-1,8.795225E-2,-4.6883788E-2],"split_indices":[3,3,0,0,0,0,0],"split_type":[0,0,0,0,0,0,0],"sum_hessian":[1.7616306E1,9.347718E0,8.268588E0,7.8093295E0,1.5383891E0,1.4271381E0,6.3821917E0],"tree_param":{"num_deleted":"0","num_feature":"5","num_nodes":"7","size_leaf_vector":"1"}},{"base_weights":[-1.4076859E-1,6.661974E-1,-3.1778106E-1,-2.9272214E-2,1.2262962E-1,-4.1779708E-2,7.4790224E-2,6.349228E-2,-3.5627298E-2],"categories":[],"categories_nodes":[],"categories_segments":[],"categories_sizes":[],"default_left":[0,0,0,0,0,0,0,0,0],"id":79,"left_children":[1,3,5,-1,-1,-1,7,-1,-1],"loss_changes":[2.816909E0,2.2945898E0,6.451038E-1,0E0,0E0,0E0,1.1974714E0,0E0,0E0],"parents":[2147483647,0,0,1,1,2,2,6,6],"right_children":[2,4,6,-1,-1,-1,8,-1,-1],"split_conditions":[3.2490337E1,7.3E1,1.32E2,-2.9272214E-2,1.2262962E-1,-4.1779708E-2,1.33E2,6.349228E-2,-3.5627298E-2],"split_indices":[3,1,1,0,0,0,1,0,0],"split_type":[0,0,0,0,0,0,0,0,0],"sum_hessian":[1.7238232E1,2.6039155E0,1.46343155E1,1.1361458E0,1.4677695E0,1.1611721E1,3.0225947E0,1.1088321E0,1.9137626E0],"tree_param":{"num_deleted":"0","num_feature":"5","num_nodes":"9","size_leaf_vector":"1"}},{"base_weights":[2.2721934E-1,4.7740424E-1,-4.5328464E-2,6.58302E-2,1.1785623E-1,6.783243E-1,-4.5775514E-2,-3.2996304E-2,1.1483413E-1],"categories":[],"categories_nodes":[],"categories_segments":[],"categories_sizes":[],"default_left":[0,0,0,0,0,0,0,0,0],"id":80,"left_children":[1,3,-1,5,-1,7,-1,-1,-1],"loss_changes":[3.934596E0,4.6711564E0,0E0,3.9754608E0,0E0,3.0659258E0,0E0,0E0,0E0],"parents":[2147483647,0,0,1,1,3,3,5,5],"right_children":[2,4,-1,6,-1,8,-1,-1,-1],"split_conditions":[1.6348343E2,1.4325377E2,-4.5328464E-2,9.6E1,1.1785623E-1,8.9E1,-4.5775514E-2,-3.2996304E-2,1.1483413E-1],"split_indices":[3,3,0,1,0,1,0,0,0],"split_type":[0,0,0,0,0,0,0,0,0],"sum_hessian":[2.083939E1,1.5455636E1,5.3837547E0,1.0428235E1,5.0274005E0,4.66986E0,5.758375E0,1.5794905E0,3.0903695E0],"tree_param":{"num_deleted":"0","num_feature":"5","num_nodes":"9","size_leaf_vector":"1"}},{"base_weights":[1.00615226E-1,3.731125E-1,-4.6546165E-2,-1.3117978E-1,1.4886706E-1,3.6000547E-1,-4.61056E-2,-3.752606E-2,1.1702793E-1],"categories":[],"categories_nodes":[],"categories_segments":[],"categories_sizes":[],"default_left":[0,0,0,0,0,0,0,0,0],"id":81,"left_children":[1,3,-1,5,-1,7,-1,-1,-1],"loss_changes":[3.252648E0,8.0876875E0,0E0,1.8803749E0,0E0,3.306298E0,0E0,0E0,0E0],"parents":[2147483647,0,0,1,1,3,3,5,5],"right_children":[2,4,-1,6,-1,8,-1,-1,-1],"split_conditions":[1.368E3,1.5464018E2,-4.6546165E-2,1.11E2,1.4886706E-1,9.6E1,-4.61056E-2,-3.752606E-2,1.1702793E-1],"split_indices":[0,3,0,1,0,1,0,0,0],"split_type":[0,0,0,0,0,0,0,0,0],"sum_hessian":[1.8960394E1,1.3029264E1,5.931129E0,9.580687E0,3.448578E0,3.8125176E0,5.7681694E0,2.2802365E0,1.5322813E0],"tree_param":{"num_deleted":"0","num_feature":"5","num_nodes":"9","size_leaf_vector":"1"}},{"base_weights":[-1.822852E-1,3.6414337E-1,-4.9025726E-2,-4.117546E-2,1.1607094E-1],"categories":[],"categories_nodes":[],"categories_segments":[],"categories_sizes":[],"default_left":[0,0,0,0,0],"id":82,"left_children":[1,3,-1,-1,-1],"loss_changes":[3.0359604E0,4.6153216E0,0E0,0E0,0E0],"parents":[2147483647,0,0,1,1],"right_children":[2,4,-1,-1,-1],"split_conditions":[6.3794785E1,1.11E2,-4.9025726E-2,-4.117546E-2,1.1607094E-1],"split_indices":[3,1,0,0,0],"split_type":[0,0,0,0,0],"sum_hessian":[1.5979775E1,5.6942286E0,1.0285546E1,3.1292548E0,2.5649738E0],"tree_param":{"num_deleted":"0","num_feature":"5","num_nodes":"5","size_leaf_vector":"1"}},{"base_weights":[-8.868191E-2,3.782156E-1,-2.8745693E-1,-4.1669626E-2,1.5890698E-1,-4.732674E-2,7.198527E-3,-4.230943E-2,7.7630736E-2],"categories":[],"categories_nodes":[],"categories_segments":[],"categories_sizes":[],"default_left":[0,0,0,0,0,0,0,0,0],"id":83,"left_children":[1,3,5,-1,-1,-1,7,-1,-1],"loss_changes":[1.8065894E0,6.335951E0,7.370465E-1,0E0,0E0,0E0,2.369409E0,0E0,0E0],"parents":[2147483647,0,0,1,1,2,2,6,6],"right_children":[2,4,6,-1,-1,-1,8,-1,-1],"split_conditions":[7.535573E1,6.3794785E1,6.5739107E0,-4.1669626E-2,1.5890698E-1,-4.732674E-2,1.7527809E2,-4.230943E-2,7.7630736E-2],"split_indices":[3,3,2,0,0,0,3,0,0],"split_type":[0,0,0,0,0,0,0,0,0],"sum_hessian":[1.7294506E1,4.894712E0,1.2399794E1,3.3508098E0,1.5439023E0,7.2326775E0,5.1671166E0,3.6018705E0,1.5652459E0],"tree_param":{"num_deleted":"0","num_feature":"5","num_nodes":"9","size_leaf_vector":"1"}},{"base_weights":[-4.6762764E-3,-4.6729755E-2,2.5256392E-1,8.207258E-1,-3.3488756E-1,4.5936087E-1,1.1652128E-1,2.1270541E-2,-4.543626E-2,9.1871426E-2,-3.4986068E-2],"categories":[],"categories_nodes":[],"categories_segments":[],"categories_sizes":[],"default_left":[0,0,0,0,0,0,0,0,0,0,0],"id":84,"left_children":[1,-1,3,5,7,9,-1,-1,-1,-1,-1],"loss_changes":[2.5594356E0,0E0,4.891971E0,3.7621927E-1,5.8807045E-1,2.2633574E0,0E0,0E0,0E0,0E0,0E0],"parents":[2147483647,0,0,2,2,3,3,4,4,5,5],"right_children":[2,-1,4,6,8,10,-1,-1,-1,-1,-1],"split_conditions":[1.19E2,-4.6729755E-2,1.27E2,1.4306198E2,9.800288E1,8.539945E1,1.1652128E-1,2.1270541E-2,-4.543626E-2,9.1871426E-2,-3.4986068E-2],"split_indices":[1,0,1,3,3,3,0,0,0,0,0],"split_type":[0,0,0,0,0,0,0,0,0,0,0],"sum_hessian":[1.9515251E1,6.6819105E0,1.2833341E1,6.321916E0,6.5114245E0,4.224209E0,2.0977075E0,1.0264653E0,5.4849596E0,2.6083033E0,1.6159054E0],"tree_param":{"num_deleted":"0","num_feature":"5","num_nodes":"11","size_leaf_vector":"1"}},{"base_weights":[1.03384145E-1,-1.7958695E-1,6.64143E-1,1.3615285E-1,-4.7196716E-2,-3.7714083E-2,1.2374713E-1,-4.524168E-2,1.3668971E-1],"categories":[],"categories_nodes":[],"categories_segments":[],"categories_sizes":[],"default_left":[0,0,0,0,0,0,0,0,0],"id":85,"left_children":[1,3,5,7,-1,-1,-1,-1,-1],"loss_changes":[3.4575408E0,1.4277091E0,4.806022E0,6.3244286E0,0E0,0E0,0E0,0E0,0E0],"parents":[2147483647,0,0,1,1,2,2,3,3],"right_children":[2,4,6,8,-1,-1,-1,-1,-1],"split_conditions":[1.9864746E2,8.846385E1,1.05E2,8.539945E1,-4.7196716E-2,-3.7714083E-2,1.2374713E-1,-4.524168E-2,1.3668971E-1],"split_indices":[3,3,1,3,0,0,0,0,0],"split_type":[0,0,0,0,0,0,0,0,0],"sum_hessian":[2.003794E1,1.3769362E1,6.268576E0,6.877124E0,6.8922386E0,2.3473992E0,3.9211767E0,5.0801067E0,1.7970175E0],"tree_param":{"num_deleted":"0","num_feature":"5","num_nodes":"9","size_leaf_vector":"1"}},{"base_weights":[-1.7066762E-2,-2.4369657E-1,6.12783E-1,-1.6854553E-2,-4.6512246E-2,-3.52656E-2,1.2312987E-1,-4.5773666E-2,1.1590761E-1],"categories":[],"categories_nodes":[],"categories_segments":[],"categories_sizes":[],"default_left":[0,0,0,0,0,0,0,0,0],"id":86,"left_children":[1,3,5,7,-1,-1,-1,-1,-1],"loss_changes":[2.864671E0,7.3075175E-1,3.609829E0,4.834205E0,0E0,0E0,0E0,0E0,0E0],"parents":[2147483647,0,0,1,1,2,2,3,3],"right_children":[2,4,6,8,-1,-1,-1,-1,-1],"split_conditions":[2.180177E2,1.0875E2,9.8E1,8.846385E1,-4.6512246E-2,-3.52656E-2,1.2312987E-1,-4.5773666E-2,1.1590761E-1],"split_indices":[3,3,1,3,0,0,0,0,0],"split_type":[0,0,0,0,0,0,0,0,0],"sum_hessian":[1.80226E1,1.3704569E1,4.3180304E0,7.3010507E0,6.403518E0,1.8539855E0,2.4640448E0,5.75436E0,1.5466905E0],"tree_param":{"num_deleted":"0","num_feature":"5","num_nodes":"9","size_leaf_vector":"1"}},{"base_weights":[-2.061855E-2,-2.5345066E-1,7.439563E-1,-1.2180024E-3,-4.7401454E-2,-3.1421307E-2,1.2291602E-1,-4.618147E-2,1.431209E-1],"categories":[],"categories_nodes":[],"categories_segments":[],"categories_sizes":[],"default_left":[0,0,0,0,0,0,0,0,0],"id":87,"left_children":[1,3,5,7,-1,-1,-1,-1,-1],"loss_changes":[3.6230624E0,8.63701E-1,2.829023E0,6.104002E0,0E0,0E0,0E0,0E0,0E0],"parents":[2147483647,0,0,1,1,2,2,3,3],"right_children":[2,4,6,8,-1,-1,-1,-1,-1],"split_conditions":[2.2757143E2,1.1970848E2,5.45388E0,1.0875E2,-4.7401454E-2,-3.1421307E-2,1.2291602E-1,-4.618147E-2,1.431209E-1],"split_indices":[3,3,2,3,0,0,0,0,0],"split_type":[0,0,0,0,0,0,0,0,0],"sum_hessian":[1.8293072E1,1.4535238E1,3.7578347E0,7.249905E0,7.2853327E0,1.2921737E0,2.4656608E0,5.9986424E0,1.2512629E0],"tree_param":{"num_deleted":"0","num_feature":"5","num_nodes":"9","size_leaf_vector":"1"}},{"base_weights":[1.5890245E-1,7.8731143E-1,-1.2274433E-1,3.8797712E-1,1.0446465E-1,1.9336355E-1,-4.6922434E-2,1.0052772E-1,-3.933805E-2,-4.5104045E-2,1.0946715E-1],"categories":[],"categories_nodes":[],"categories_segments":[],"categories_sizes":[],"default_left":[0,0,0,0,0,0,0,0,0,0,0],"id":88,"left_children":[1,3,5,7,-1,9,-1,-1,-1,-1,-1],"loss_changes":[4.084078E0,3.250661E-1,1.889347E0,2.506155E0,0E0,5.8926454E0,0E0,0E0,0E0,0E0,0E0],"parents":[2147483647,0,0,1,1,2,2,3,3,5,5],"right_children":[2,4,6,8,-1,10,-1,-1,-1,-1,-1],"split_conditions":[5.45388E0,7.8E1,1.3076294E2,6.2E1,1.0446465E-1,1.1970848E2,-4.6922434E-2,1.0052772E-1,-3.933805E-2,-4.5104045E-2,1.0946715E-1],"split_indices":[2,1,3,1,0,3,0,0,0,0,0],"split_type":[0,0,0,0,0,0,0,0,0,0,0],"sum_hessian":[2.152926E1,6.1072984E0,1.5421962E1,3.3760278E0,2.7312708E0,8.29553E0,7.1264315E0,1.7259159E0,1.6501119E0,5.128443E0,3.1670876E0],"tree_param":{"num_deleted":"0","num_feature":"5","num_nodes":"11","size_leaf_vector":"1"}},{"base_weights":[-1.9984273E-2,9.035818E-1,-2.2101453E-1,-3.134958E-2,1.535941E-1,-4.0441117E-1,1.4791644E-1,-4.7052577E-2,-1.8435344E-1,5.3000385E-1,-3.7277862E-2,1.9999294E-2,-3.7141036E-2,8.464512E-3,7.2327755E-2],"categories":[],"categories_nodes":[],"categories_segments":[],"categories_sizes":[],"default_left":[0,0,0,0,0,0,0,0,0,0,0,0,0,0,0],"id":89,"left_children":[1,3,5,-1,-1,7,9,-1,11,13,-1,-1,-1,-1,-1],"loss_changes":[3.8338847E0,3.325688E0,1.2018217E0,0E0,0E0,8.117938E-2,1.4582362E0,0E0,3.8419724E-1,2.8890395E-1,0E0,0E0,0E0,0E0,0E0],"parents":[2147483647,0,0,1,1,2,2,5,5,6,6,8,8,9,9],"right_children":[2,4,6,-1,-1,8,10,-1,12,14,-1,-1,-1,-1,-1],"split_conditions":[7.8E1,6.4E1,6.5834975E0,-3.134958E-2,1.535941E-1,1.25E2,6.596641E0,-4.7052577E-2,1.27E2,1.313597E2,-3.7277862E-2,1.9999294E-2,-3.7141036E-2,8.464512E-3,7.2327755E-2],"split_indices":[1,1,2,0,0,1,2,0,1,3,0,0,0,0,0],"split_type":[0,0,0,0,0,0,0,0,0,0,0,0,0,0,0],"sum_hessian":[1.8573885E1,2.6955109E0,1.5878375E1,1.0940598E0,1.6014509E0,1.054183E1,5.3365445E0,7.231109E0,3.3107214E0,3.0676312E0,2.2689133E0,1.0611721E0,2.2495494E0,1.3635563E0,1.704075E0],"tree_param":{"num_deleted":"0","num_feature":"5","num_nodes":"15","size_leaf_vector":"1"}},{"base_weights":[-8.505098E-2,5.896884E-1,-2.4715807E-1,-3.0317262E-2,1.12262525E-1,-1.3423287E-2,-4.669566E-2,-4.6266362E-2,1.3857298E-1],"categories":[],"categories_nodes":[],"categories_segments":[],"categories_sizes":[],"default_left":[0,0,0,0,0,0,0,0,0],"id":90,"left_children":[1,3,5,-1,-1,7,-1,-1,-1],"loss_changes":[2.1185198E0,2.1433601E0,7.7703136E-1,0E0,0E0,5.932789E0,0E0,0E0,0E0],"parents":[2147483647,0,0,1,1,2,2,5,5],"right_children":[2,4,6,-1,-1,8,-1,-1,-1],"split_conditions":[3.2490337E1,4.974954E0,1.5244263E2,-3.0317262E-2,1.12262525E-1,1.3333511E2,-4.669566E-2,-4.6266362E-2,1.3857298E-1],"split_indices":[3,2,3,0,0,3,0,0,0],"split_type":[0,0,0,0,0,0,0,0,0],"sum_hessian":[1.7035957E1,2.7891235E0,1.4246833E1,1.2036705E0,1.585453E0,7.4187603E0,6.8280725E0,6.122328E0,1.2964325E0],"tree_param":{"num_deleted":"0","num_feature":"5","num_nodes":"9","size_leaf_vector":"1"}},{"base_weights":[8.508459E-2,3.024925E-1,-4.5590505E-2,-4.8665036E-2,1.04263365E-1,5.396292E-1,-4.6496753E-2,-3.3397894E-2,1.008062E-1],"categories":[],"categories_nodes":[],"categories_segments":[],"categories_sizes":[],"default_left":[0,0,0,0,0,0,0,0,0],"id":91,"left_children":[1,3,-1,5,-1,7,-1,-1,-1],"loss_changes":[2.7178516E0,4.273796E0,0E0,3.1837847E0,0E0,2.5568967E0,0E0,0E0,0E0],"parents":[2147483647,0,0,1,1,3,3,5,5],"right_children":[2,4,-1,6,-1,8,-1,-1,-1],"split_conditions":[1.6348343E2,1.5244263E2,-4.5590505E-2,9.6E1,1.04263365E-1,8.9E1,-4.6496753E-2,-3.3397894E-2,1.008062E-1],"split_indices":[3,3,0,1,0,1,0,0,0],"split_type":[0,0,0,0,0,0,0,0,0],"sum_hessian":[2.0935417E1,1.5248389E1,5.6870284E0,1.0975396E1,4.272992E0,4.4254155E0,6.549981E0,1.6448555E0,2.78056E0],"tree_param":{"num_deleted":"0","num_feature":"5","num_nodes":"9","size_leaf_vector":"1"}},{"base_weights":[1.877983E-1,4.0040985E-1,-4.4927854E-2,-3.7393402E-2,1.3570403E-1,5.596772E-1,-4.6850786E-2,-3.620596E-2,1.20504044E-1],"categories":[],"categories_nodes":[],"categories_segments":[],"categories_sizes":[],"default_left":[0,0,0,0,0,0,0,0,0],"id":92,"left_children":[1,3,-1,5,-1,7,-1,-1,-1],"loss_changes":[3.031889E0,6.88408E0,0E0,3.3939211E0,0E0,3.741909E0,0E0,0E0,0E0],"parents":[2147483647,0,0,1,1,3,3,5,5],"right_children":[2,4,-1,6,-1,8,-1,-1,-1],"split_conditions":[1.7527809E2,1.6348343E2,-4.4927854E-2,6.432423E0,1.3570403E-1,6.217656E0,-4.6850786E-2,-3.620596E-2,1.20504044E-1],"split_indices":[3,3,0,2,0,2,0,0,0],"split_type":[0,0,0,0,0,0,0,0,0],"sum_hessian":[2.005571E1,1.5315845E1,4.7398653E0,1.1166426E1,4.149419E0,4.5570054E0,6.6094203E0,2.0574486E0,2.499557E0],"tree_param":{"num_deleted":"0","num_feature":"5","num_nodes":"9","size_leaf_vector":"1"}},{"base_weights":[-2.916788E-1,5.2287854E-2,-4.85555E-2,-4.051472E-2,5.012063E-1,7.118565E-2,6.299677E-3],"categories":[],"categories_nodes":[],"categories_segments":[],"categories_sizes":[],"default_left":[0,0,0,0,0,0,0],"id":93,"left_children":[1,3,-1,-1,5,-1,-1],"loss_changes":[1.1403408E0,1.6260527E0,0E0,0E0,3.192531E-1,0E0,0E0],"parents":[2147483647,0,0,1,1,4,4],"right_children":[2,4,-1,-1,6,-1,-1],"split_conditions":[9.37E2,1.11E2,-4.85555E-2,-4.051472E-2,1.17E2,7.118565E-2,6.299677E-3],"split_indices":[0,1,0,0,1,0,0],"split_type":[0,0,0,0,0,0,0],"sum_hessian":[1.5719197E1,5.929551E0,9.789646E0,2.985211E0,2.9443405E0,1.5667347E0,1.3776057E0],"tree_param":{"num_deleted":"0","num_feature":"5","num_nodes":"7","size_leaf_vector":"1"}},{"base_weights":[-1.1743847E-2,-3.771958E-1,2.6956466E-1,-4.6115328E-2,-6.9105566E-2,8.582248E-2,6.314257E-2,2.1271575E-2,-2.9689183E-2,-4.4602122E-2,6.34849E-1,-3.0390048E-2,9.768105E-2],"categories":[],"categories_nodes":[],"categories_segments":[],"categories_sizes":[],"default_left":[0,0,0,0,0,0,0,0,0,0,0,0,0],"id":94,"left_children":[1,3,5,-1,7,-1,9,-1,-1,-1,11,-1,-1],"loss_changes":[2.2413287E0,2.1306932E-1,1.4456929E0,0E0,2.6884276E-1,0E0,3.2576003E0,0E0,0E0,0E0,1.9745252E0,0E0,0E0],"parents":[2147483647,0,0,1,1,2,2,4,4,6,6,10,10],"right_children":[2,4,6,-1,8,-1,10,-1,-1,-1,12,-1,-1],"split_conditions":[6.541705E0,6.4940577E0,9.9E2,-4.6115328E-2,2.4566338E1,8.582248E-2,1.375E3,2.1271575E-2,-2.9689183E-2,-4.4602122E-2,1.27E2,-3.0390048E-2,9.768105E-2],"split_indices":[2,2,0,0,4,0,0,0,0,0,1,0,0],"split_type":[0,0,0,0,0,0,0,0,0,0,0,0,0],"sum_hessian":[1.9812756E1,8.469302E0,1.1343454E1,6.265172E0,2.20413E0,2.1252356E0,9.218219E0,1.0147829E0,1.189347E0,4.9920893E0,4.2261295E0,1.1581339E0,3.067996E0],"tree_param":{"num_deleted":"0","num_feature":"5","num_nodes":"13","size_leaf_vector":"1"}},{"base_weights":[3.2112133E-3,-4.6570323E-2,2.7340004E-1,7.1285623E-1,-3.0141267E-1,3.7466565E-1,1.0797975E-1,1.9760635E-2,-4.3627758E-2,7.995915E-2,-3.591723E-2],"categories":[],"categories_nodes":[],"categories_segments":[],"categories_sizes":[],"default_left":[0,0,0,0,0,0,0,0,0,0,0],"id":95,"left_children":[1,-1,3,5,7,9,-1,-1,-1,-1,-1],"loss_changes":[2.6558318E0,0E0,3.572436E0,5.6710625E-1,5.210921E-1,2.035278E0,0E0,0E0,0E0,0E0,0E0],"parents":[2147483647,0,0,2,2,3,3,4,4,5,5],"right_children":[2,-1,4,6,8,10,-1,-1,-1,-1,-1],"split_conditions":[6.5231657E0,-4.6570323E-2,1.27E2,1.22E3,1.065E3,9.14E2,1.0797975E-1,1.9760635E-2,-4.3627758E-2,7.995915E-2,-3.591723E-2],"split_indices":[2,0,1,0,0,0,0,0,0,0,0],"split_type":[0,0,0,0,0,0,0,0,0,0,0],"sum_hessian":[1.8957375E1,6.6655865E0,1.2291788E1,6.8299766E0,5.461812E0,4.6059575E0,2.2240193E0,1.0630736E0,4.3987384E0,2.86018E0,1.7457776E0],"tree_param":{"num_deleted":"0","num_feature":"5","num_nodes":"11","size_leaf_vector":"1"}},{"base_weights":[4.279625E-2,-2.118943E-1,5.072831E-1,-3.2731333E-1,3.4829374E-2,-3.5911642E-2,9.1207914E-2,-4.5391764E-2,-1.3486551E-1,2.8418416E-2,-4.0605545E-2],"categories":[],"categories_nodes":[],"categories_segments":[],"categories_sizes":[],"default_left":[0,0,0,0,0,0,0,0,0,0,0],"id":96,"left_children":[1,3,5,7,-1,-1,-1,-1,9,-1,-1],"loss_changes":[2.4285228E0,9.7890884E-1,2.867711E0,2.2158921E-1,0E0,0E0,0E0,0E0,8.0049884E-1,0E0,0E0],"parents":[2147483647,0,0,1,1,2,2,3,3,8,8],"right_children":[2,4,6,8,-1,-1,-1,-1,10,-1,-1],"split_conditions":[1.515E3,2.5464085E1,1.05E2,2.475911E1,3.4829374E-2,-3.5911642E-2,9.1207914E-2,-4.5391764E-2,9.81E2,2.8418416E-2,-4.0605545E-2],"split_indices":[0,4,1,4,0,0,0,0,0,0,0],"split_type":[0,0,0,0,0,0,0,0,0,0,0],"sum_hessian":[1.8619818E1,1.2376991E1,6.2428255E0,1.0607226E1,1.7697649E0,2.0238829E0,4.2189426E0,5.578611E0,5.0286155E0,1.9568796E0,3.071736E0],"tree_param":{"num_deleted":"0","num_feature":"5","num_nodes":"11","size_leaf_vector":"1"}},{"base_weights":[-4.1748234E-3,-4.5482177E-2,2.0639715E-1,1.1441763E-1,-7.47615E-2,5.2862805E-1,-4.618397E-2,-3.3470582E-2,1.0630967E-1],"categories":[],"categories_nodes":[],"categories_segments":[],"categories_sizes":[],"default_left":[0,0,0,0,0,0,0,0,0],"id":97,"left_children":[1,-1,3,-1,5,7,-1,-1,-1],"loss_changes":[1.8202236E0,0E0,3.536054E0,0E0,2.8148875E0,2.5558043E0,0E0,0E0,0E0],"parents":[2147483647,0,0,2,2,4,4,5,5],"right_children":[2,-1,4,-1,6,8,-1,-1,-1],"split_conditions":[9.800288E1,-4.5482177E-2,1.0875E2,1.1441763E-1,1.05E2,1E2,-4.618397E-2,-3.3470582E-2,1.0630967E-1],"split_indices":[3,0,3,0,1,1,0,0,0],"split_type":[0,0,0,0,0,0,0,0,0],"sum_hessian":[1.7192476E1,5.105727E0,1.2086748E1,2.0799062E0,1.0006842E1,3.767796E0,6.239046E0,1.5835795E0,2.1842165E0],"tree_param":{"num_deleted":"0","num_feature":"5","num_nodes":"9","size_leaf_vector":"1"}},{"base_weights":[2.9535623E-2,6.663262E-1,-2.8222626E-1,-3.6373824E-2,1.2162366E-1,-4.6026345E-2,-4.64949E-2,-4.1789528E-2,4.635212E-1,1.22325225E-2,6.0845543E-2],"categories":[],"categories_nodes":[],"categories_segments":[],"categories_sizes":[],"default_left":[0,0,0,0,0,0,0,0,0,0,0],"id":98,"left_children":[1,3,5,-1,-1,7,-1,-1,9,-1,-1],"loss_changes":[3.9400818E0,4.1294813E0,5.565059E-1,0E0,0E0,1.5106763E0,0E0,0E0,9.4022155E-2,0E0,0E0],"parents":[2147483647,0,0,1,1,2,2,5,5,8,8],"right_children":[2,4,6,-1,-1,8,-1,-1,10,-1,-1],"split_conditions":[6.0409174E0,8.9E1,1.128E3,-3.6373824E-2,1.2162366E-1,1.26E2,-4.64949E-2,-4.1789528E-2,1.071E3,1.22325225E-2,6.0845543E-2],"split_indices":[2,1,0,0,0,1,0,0,0,0,0],"split_type":[0,0,0,0,0,0,0,0,0,0,0],"sum_hessian":[1.7899323E1,5.509197E0,1.2390126E1,2.0353088E0,3.4738884E0,5.9502788E0,6.439847E0,3.543844E0,2.406435E0,1.2672206E0,1.1392144E0],"tree_param":{"num_deleted":"0","num_feature":"5","num_nodes":"11","size_leaf_vector":"1"}},{"base_weights":[1.7162392E-1,8.199679E-1,-9.9525295E-2,1.0464343E-1,4.8800746E-1,1.7769696E-1,-4.6385784E-2,-3.5250224E-2,9.141629E-2,-4.5563523E-2,1.0031495E-1],"categories":[],"categories_nodes":[],"categories_segments":[],"categories_sizes":[],"default_left":[0,0,0,0,0,0,0,0,0,0,0],"id":99,"left_children":[1,3,5,-1,7,9,-1,-1,-1,-1,-1],"loss_changes":[4.103925E0,4.7078133E-3,1.8019615E0,0E0,1.9892745E0,5.889495E0,0E0,0E0,0E0,0E0,0E0],"parents":[2147483647,0,0,1,1,2,2,4,4,5,5],"right_children":[2,4,6,-1,8,10,-1,-1,-1,-1,-1],"split_conditions":[5.45388E0,4.455851E0,1.21786736E2,1.0464343E-1,6.99E2,1.1970848E2,-4.6385784E-2,-3.5250224E-2,9.141629E-2,-4.5563523E-2,1.0031495E-1],"split_indices":[2,2,3,0,0,3,0,0,0,0,0],"split_type":[0,0,0,0,0,0,0,0,0,0,0],"sum_hessian":[2.188034E1,5.855419E0,1.602492E1,2.201352E0,3.6540675E0,9.391303E0,6.6336174E0,1.287518E0,2.3665495E0,5.5675745E0,3.8237286E0],"tree_param":{"num_deleted":"0","num_feature":"5","num_nodes":"11","size_leaf_vector":"1"}},{"base_weights":[2.7566985E-3,8.1853247E-1,-1.9878745E-1,-3.135318E-2,1.3759802E-1,-3.9094588E-1,1.5524468E-1,-4.5333855E-2,-2.2299372E-1,4.9807233E-1,-3.6123075E-2,2.1228675E-2,-3.9744165E-2,-2.707077E-2,8.3085306E-2],"categories":[],"categories_nodes":[],"categories_segments":[],"categories_sizes":[],"default_left":[0,0,0,0,0,0,0,0,0,0,0,0,0,0,0],"id":100,"left_children":[1,3,5,-1,-1,7,9,-1,11,13,-1,-1,-1,-1,-1],"loss_changes":[3.2203515E0,2.8797796E0,1.1299487E0,0E0,0E0,8.644104E-3,1.2857395E0,0E0,4.4920254E-1,1.2928002E0,0E0,0E0,0E0,0E0,0E0],"parents":[2147483647,0,0,1,1,2,2,5,5,6,6,8,8,9,9],"right_children":[2,4,6,-1,-1,8,10,-1,12,14,-1,-1,-1,-1,-1],"split_conditions":[7.8E1,6.4E1,2.5002363E1,-3.135318E-2,1.3759802E-1,6.543851E0,6.596641E0,-4.5333855E-2,6.5580735E0,1.27E2,-3.6123075E-2,2.1228675E-2,-3.9744165E-2,-2.707077E-2,8.3085306E-2],"split_indices":[1,1,4,0,0,2,2,0,2,1,0,0,0,0,0],"split_type":[0,0,0,0,0,0,0,0,0,0,0,0,0,0,0],"sum_hessian":[1.7597092E1,2.879726E0,1.4717366E1,1.0945247E0,1.7852011E0,9.471981E0,5.2453847E0,5.6673865E0,3.8045943E0,3.1741016E0,2.071283E0,1.026465E0,2.7781293E0,1.0152439E0,2.1588578E0],"tree_param":{"num_deleted":"0","num_feature":"5","num_nodes":"15","size_leaf_vector":"1"}},{"base_weights":[-2.1292086E-1,3.8305154E-1,-3.5503602E-1,-3.1482488E-2,9.33831E-2,-1.8441373E-1,-4.6780672E-2,-4.367138E-2,4.7102194E-2],"categories":[],"categories_nodes":[],"categories_segments":[],"categories_sizes":[],"default_left":[0,0,0,0,0,0,0,0,0],"id":101,"left_children":[1,3,5,-1,-1,7,-1,-1,-1],"loss_changes":[1.497616E0,1.6686971E0,1.7348516E-1,0E0,0E0,1.3670334E0,0E0,0E0,0E0],"parents":[2147483647,0,0,1,1,2,2,5,5],"right_children":[2,4,6,-1,-1,8,-1,-1,-1],"split_conditions":[3.2490337E1,4.974954E0,6.5519385E0,-3.1482488E-2,9.33831E-2,6.53734E0,-4.6780672E-2,-4.367138E-2,4.7102194E-2],"split_indices":[3,2,2,0,0,2,0,0,0],"split_type":[0,0,0,0,0,0,0,0,0],"sum_hessian":[1.50764065E1,2.5764556E0,1.2499951E1,1.325436E0,1.2510195E0,6.0227757E0,6.477175E0,4.5897317E0,1.4330436E0],"tree_param":{"num_deleted":"0","num_feature":"5","num_nodes":"9","size_leaf_vector":"1"}},{"base_weights":[8.315023E-2,3.081313E-1,-4.50218E-2,-6.4271456E-3,9.343625E-2,5.6245196E-1,-4.5313824E-2,-3.014913E-2,9.292243E-2],"categories":[],"categories_nodes":[],"categories_segments":[],"categories_sizes":[],"default_left":[0,0,0,0,0,0,0,0,0],"id":102,"left_children":[1,3,-1,5,-1,7,-1,-1,-1],"loss_changes":[2.5389352E0,2.8941646E0,0E0,2.987384E0,0E0,1.9202048E0,0E0,0E0,0E0],"parents":[2147483647,0,0,1,1,3,3,5,5],"right_children":[2,4,-1,6,-1,8,-1,-1,-1],"split_conditions":[1.6348343E2,1.5244263E2,-4.50218E-2,9.6E1,9.343625E-2,8.6E1,-4.5313824E-2,-3.014913E-2,9.292243E-2],"split_indices":[3,3,0,1,0,1,0,0,0],"split_type":[0,0,0,0,0,0,0,0,0],"sum_hessian":[1.9002113E1,1.3661727E1,5.3403873E0,9.752662E0,3.9090645E0,4.1757803E0,5.576882E0,1.2974904E0,2.8782897E0],"tree_param":{"num_deleted":"0","num_feature":"5","num_nodes":"9","size_leaf_vector":"1"}},{"base_weights":[1.8128976E-1,-4.3375265E-2,3.5572928E-1,1.5420554E-2,7.7177954E-1,1.09561644E-1,-4.7166876E-2,1.260197E-1,-3.725767E-2],"categories":[],"categories_nodes":[],"categories_segments":[],"categories_sizes":[],"default_left":[0,0,0,0,0,0,0,0,0],"id":103,"left_children":[1,-1,3,5,7,-1,-1,-1,-1],"loss_changes":[2.5255551E0,0E0,2.5037565E0,6.1959968E0,4.926301E0,0E0,0E0,0E0,0E0],"parents":[2147483647,0,0,2,2,3,3,4,4],"right_children":[2,-1,4,6,8,-1,-1,-1,-1],"split_conditions":[6.3121834E0,-4.3375265E-2,1.5464018E2,1.11E2,1.7527809E2,1.09561644E-1,-4.7166876E-2,1.260197E-1,-3.725767E-2],"split_indices":[2,0,3,1,3,0,0,0,0],"split_type":[0,0,0,0,0,0,0,0,0],"sum_hessian":[2.1101847E1,4.3340864E0,1.676776E1,9.793897E0,6.9738636E0,2.6555314E0,7.1383653E0,4.816799E0,2.1570644E0],"tree_param":{"num_deleted":"0","num_feature":"5","num_nodes":"9","size_leaf_vector":"1"}},{"base_weights":[-1.5250055E-1,3.272775E-1,-4.8364937E-2,-3.9113116E-2,7.676771E-1,9.024112E-2,1.49787115E-2],"categories":[],"categories_nodes":[],"categories_segments":[],"categories_sizes":[],"default_left":[0,0,0,0,0,0,0],"id":104,"left_children":[1,3,-1,-1,5,-1,-1],"loss_changes":[2.9401226E0,2.751144E0,0E0,0E0,2.927382E-1,0E0,0E0],"parents":[2147483647,0,0,1,1,4,4],"right_children":[2,4,-1,-1,6,-1,-1],"split_conditions":[9.37E2,1.11E2,-4.8364937E-2,-3.9113116E-2,1.19E2,9.024112E-2,1.49787115E-2],"split_indices":[0,1,0,0,1,0,0],"split_type":[0,0,0,0,0,0,0],"sum_hessian":[1.650926E1,6.746469E0,9.762791E0,2.6064804E0,4.139989E0,3.0208132E0,1.1191754E0],"tree_param":{"num_deleted":"0","num_feature":"5","num_nodes":"7","size_leaf_vector":"1"}},{"base_weights":[-8.208412E-3,-4.5221645E-2,2.155069E-1,6.6135335E-1,-8.931733E-3,8.038637E-3,9.115278E-2,-4.4478875E-2,5.3822094E-1,-2.9909894E-2,8.91335E-2],"categories":[],"categories_nodes":[],"categories_segments":[],"categories_sizes":[],"default_left":[0,0,0,0,0,0,0,0,0,0,0],"id":105,"left_children":[1,-1,3,5,7,-1,-1,-1,9,-1,-1],"loss_changes":[1.9615982E0,0E0,1.3224096E0,5.6894445E-1,2.5616717E0,0E0,0E0,0E0,1.6769787E0,0E0,0E0],"parents":[2147483647,0,0,2,2,3,3,4,4,8,8],"right_children":[2,-1,4,6,8,-1,-1,-1,10,-1,-1],"split_conditions":[6.4940577E0,-4.5221645E-2,9.9E2,6.541705E0,1.378E3,8.038637E-3,9.115278E-2,-4.4478875E-2,1.27E2,-2.9909894E-2,8.91335E-2],"split_indices":[2,0,0,2,0,0,0,0,1,0,0],"split_type":[0,0,0,0,0,0,0,0,0,0,0],"sum_hessian":[1.7766901E1,5.610447E0,1.2156453E1,3.4186397E0,8.737814E0,1.4267333E0,1.9919063E0,4.9676847E0,3.7701292E0,1.163694E0,2.6064353E0],"tree_param":{"num_deleted":"0","num_feature":"5","num_nodes":"11","size_leaf_vector":"1"}},{"base_weights":[3.7697766E-2,-4.556502E-2,2.961479E-1,1.076859E0,-3.0022975E-2,1.6480684E-2,1.368531E-1,-4.7258843E-2,1.1115035E-1],"categories":[],"categories_nodes":[],"categories_segments":[],"categories_sizes":[],"default_left":[0,0,0,0,0,0,0,0,0],"id":106,"left_children":[1,-1,3,5,7,-1,-1,-1,-1],"loss_changes":[2.530154E0,0E0,3.3257422E0,7.9551077E-1,5.625317E0,0E0,0E0,0E0,0E0],"parents":[2147483647,0,0,2,2,3,3,4,4],"right_children":[2,-1,4,6,8,-1,-1,-1,-1],"split_conditions":[6.5231657E0,-4.556502E-2,8.539945E1,7.55635E1,1.9576494E2,1.6480684E-2,1.368531E-1,-4.7258843E-2,1.1115035E-1],"split_indices":[2,0,3,3,3,0,0,0,0],"split_type":[0,0,0,0,0,0,0,0,0],"sum_hessian":[1.7785131E1,5.8517966E0,1.1933334E1,2.8382592E0,9.095075E0,1.0669549E0,1.7713042E0,6.976367E0,2.118708E0],"tree_param":{"num_deleted":"0","num_feature":"5","num_nodes":"9","size_leaf_vector":"1"}},{"base_weights":[1.4243977E-1,-1.07789725E-1,6.257215E-1,3.373733E-1,-4.7544252E-2,-3.533953E-2,1.0569351E-1,-4.2716973E-2,1.3910776E-1],"categories":[],"categories_nodes":[],"categories_segments":[],"categories_sizes":[],"default_left":[0,0,0,0,0,0,0,0,0],"id":107,"left_children":[1,3,5,7,-1,-1,-1,-1,-1],"loss_changes":[2.5626764E0,2.5249767E0,3.4074333E0,6.330015E0,0E0,0E0,0E0,0E0,0E0],"parents":[2147483647,0,0,1,1,2,2,3,3],"right_children":[2,4,6,8,-1,-1,-1,-1,-1],"split_conditions":[2.0636568E2,9.800288E1,6.3121834E0,8.539945E1,-4.7544252E-2,-3.533953E-2,1.0569351E-1,-4.2716973E-2,1.3910776E-1],"split_indices":[3,3,2,3,0,0,0,0,0],"split_type":[0,0,0,0,0,0,0,0,0],"sum_hessian":[1.9633444E1,1.3447616E1,6.1858287E0,6.119877E0,7.3277383E0,1.9465168E0,4.239312E0,3.8911512E0,2.2287257E0],"tree_param":{"num_deleted":"0","num_feature":"5","num_nodes":"9","size_leaf_vector":"1"}},